{"learner":{"attributes":{"scikit_learn":"{\"_estimator_type\": \"classifier\"}"},"feature_names":["Label","Gender","Age","MMSE","Hip ASM","Hip Contrast","Hip Correlation","Hip Variance ","Hip Sum Average","Hip Sum Variance","Hip Entropy","Hip Clusterhade","ERC ASM","ERC CONTRAST","ERC CORRELATION","ERC VARIANCE ","ERC SUM AVERAGE","ERC SUM VARIANCE","ERC ENTROPY","ERC CLUSTER SHADE","ERCs_thicknessbaseline","ERCsVolumebaseline","TOTAL_HIPPOCAMPUS_VOLUME"],"feature_types":["float","float","float","float","float","float","float","float","float","float","float","float","float","float","float","float","float","float","float","float","float","float","float"],"gradient_booster":{"model":{"gbtree_model_param":{"num_parallel_tree":"1","num_trees":"1440"},"iteration_indptr":[0,3,6,9,12,15,18,21,24,27,30,33,36,39,42,45,48,51,54,57,60,63,66,69,72,75,78,81,84,87,90,93,96,99,102,105,108,111,114,117,120,123,126,129,132,135,138,141,144,147,150,153,156,159,162,165,168,171,174,177,180,183,186,189,192,195,198,201,204,207,210,213,216,219,222,225,228,231,234,237,240,243,246,249,252,255,258,261,264,267,270,273,276,279,282,285,288,291,294,297,300,303,306,309,312,315,318,321,324,327,330,333,336,339,342,345,348,351,354,357,360,363,366,369,372,375,378,381,384,387,390,393,396,399,402,405,408,411,414,417,420,423,426,429,432,435,438,441,444,447,450,453,456,459,462,465,468,471,474,477,480,483,486,489,492,495,498,501,504,507,510,513,516,519,522,525,528,531,534,537,540,543,546,549,552,555,558,561,564,567,570,573,576,579,582,585,588,591,594,597,600,603,606,609,612,615,618,621,624,627,630,633,636,639,642,645,648,651,654,657,660,663,666,669,672,675,678,681,684,687,690,693,696,699,702,705,708,711,714,717,720,723,726,729,732,735,738,741,744,747,750,753,756,759,762,765,768,771,774,777,780,783,786,789,792,795,798,801,804,807,810,813,816,819,822,825,828,831,834,837,840,843,846,849,852,855,858,861,864,867,870,873,876,879,882,885,888,891,894,897,900,903,906,909,912,915,918,921,924,927,930,933,936,939,942,945,948,951,954,957,960,963,966,969,972,975,978,981,984,987,990,993,996,999,1002,1005,1008,1011,1014,1017,1020,1023,1026,1029,1032,1035,1038,1041,1044,1047,1050,1053,1056,1059,1062,1065,1068,1071,1074,1077,1080,1083,1086,1089,1092,1095,1098,1101,1104,1107,1110,1113,1116,1119,1122,1125,1128,1131,1134,1137,1140,1143,1146,1149,1152,1155,1158,1161,1164,1167,1170,1173,1176,1179,1182,1185,1188,1191,1194,1197,1200,1203,1206,1209,1212,1215,1218,1221,1224,1227,1230,1233,1236,1239,1242,1245,1248,1251,1254,1257,1260,1263,1266,1269,1272,1275,1278,1281,1284,1287,1290,1293,1296,1299,1302,1305,1308,1311,1314,1317,1320,1323,1326,1329,1332,1335,1338,1341,1344,1347,1350,1353,1356,1359,1362,1365,1368,1371,1374,1377,1380,1383,1386,1389,1392,1395,1398,1401,1404,1407,1410,1413,1416,1419,1422,1425,1428,1431,1434,1437,1440],"tree_info":[0,1,2,0,1,2,0,1,2,0,1,2,0,1,2,0,1,2,0,1,2,0,1,2,0,1,2,0,1,2,0,1,2,0,1,2,0,1,2,0,1,2,0,1,2,0,1,2,0,1,2,0,1,2,0,1,2,0,1,2,0,1,2,0,1,2,0,1,2,0,1,2,0,1,2,0,1,2,0,1,2,0,1,2,0,1,2,0,1,2,0,1,2,0,1,2,0,1,2,0,1,2,0,1,2,0,1,2,0,1,2,0,1,2,0,1,2,0,1,2,0,1,2,0,1,2,0,1,2,0,1,2,0,1,2,0,1,2,0,1,2,0,1,2,0,1,2,0,1,2,0,1,2,0,1,2,0,1,2,0,1,2,0,1,2,0,1,2,0,1,2,0,1,2,0,1,2,0,1,2,0,1,2,0,1,2,0,1,2,0,1,2,0,1,2,0,1,2,0,1,2,0,1,2,0,1,2,0,1,2,0,1,2,0,1,2,0,1,2,0,1,2,0,1,2,0,1,2,0,1,2,0,1,2,0,1,2,0,1,2,0,1,2,0,1,2,0,1,2,0,1,2,0,1,2,0,1,2,0,1,2,0,1,2,0,1,2,0,1,2,0,1,2,0,1,2,0,1,2,0,1,2,0,1,2,0,1,2,0,1,2,0,1,2,0,1,2,0,1,2,0,1,2,0,1,2,0,1,2,0,1,2,0,1,2,0,1,2,0,1,2,0,1,2,0,1,2,0,1,2,0,1,2,0,1,2,0,1,2,0,1,2,0,1,2,0,1,2,0,1,2,0,1,2,0,1,2,0,1,2,0,1,2,0,1,2,0,1,2,0,1,2,0,1,2,0,1,2,0,1,2,0,1,2,0,1,2,0,1,2,0,1,2,0,1,2,0,1,2,0,1,2,0,1,2,0,1,2,0,1,2,0,1,2,0,1,2,0,1,2,0,1,2,0,1,2,0,1,2,0,1,2,0,1,2,0,1,2,0,1,2,0,1,2,0,1,2,0,1,2,0,1,2,0,1,2,0,1,2,0,1,2,0,1,2,0,1,2,0,1,2,0,1,2,0,1,2,0,1,2,0,1,2,0,1,2,0,1,2,0,1,2,0,1,2,0,1,2,0,1,2,0,1,2,0,1,2,0,1,2,0,1,2,0,1,2,0,1,2,0,1,2,0,1,2,0,1,2,0,1,2,0,1,2,0,1,2,0,1,2,0,1,2,0,1,2,0,1,2,0,1,2,0,1,2,0,1,2,0,1,2,0,1,2,0,1,2,0,1,2,0,1,2,0,1,2,0,1,2,0,1,2,0,1,2,0,1,2,0,1,2,0,1,2,0,1,2,0,1,2,0,1,2,0,1,2,0,1,2,0,1,2,0,1,2,0,1,2,0,1,2,0,1,2,0,1,2,0,1,2,0,1,2,0,1,2,0,1,2,0,1,2,0,1,2,0,1,2,0,1,2,0,1,2,0,1,2,0,1,2,0,1,2,0,1,2,0,1,2,0,1,2,0,1,2,0,1,2,0,1,2,0,1,2,0,1,2,0,1,2,0,1,2,0,1,2,0,1,2,0,1,2,0,1,2,0,1,2,0,1,2,0,1,2,0,1,2,0,1,2,0,1,2,0,1,2,0,1,2,0,1,2,0,1,2,0,1,2,0,1,2,0,1,2,0,1,2,0,1,2,0,1,2,0,1,2,0,1,2,0,1,2,0,1,2,0,1,2,0,1,2,0,1,2,0,1,2,0,1,2,0,1,2,0,1,2,0,1,2,0,1,2,0,1,2,0,1,2,0,1,2,0,1,2,0,1,2,0,1,2,0,1,2,0,1,2,0,1,2,0,1,2,0,1,2,0,1,2,0,1,2,0,1,2,0,1,2,0,1,2,0,1,2,0,1,2,0,1,2,0,1,2,0,1,2,0,1,2,0,1,2,0,1,2,0,1,2,0,1,2,0,1,2,0,1,2,0,1,2,0,1,2,0,1,2,0,1,2,0,1,2,0,1,2,0,1,2,0,1,2,0,1,2,0,1,2,0,1,2,0,1,2,0,1,2,0,1,2,0,1,2,0,1,2,0,1,2,0,1,2,0,1,2,0,1,2,0,1,2,0,1,2,0,1,2,0,1,2,0,1,2,0,1,2,0,1,2,0,1,2,0,1,2,0,1,2,0,1,2,0,1,2,0,1,2,0,1,2,0,1,2,0,1,2,0,1,2,0,1,2,0,1,2,0,1,2,0,1,2,0,1,2,0,1,2,0,1,2,0,1,2,0,1,2,0,1,2,0,1,2,0,1,2,0,1,2,0,1,2,0,1,2,0,1,2,0,1,2,0,1,2,0,1,2,0,1,2,0,1,2,0,1,2,0,1,2,0,1,2,0,1,2,0,1,2,0,1,2,0,1,2,0,1,2,0,1,2,0,1,2,0,1,2,0,1,2,0,1,2,0,1,2,0,1,2,0,1,2,0,1,2,0,1,2,0,1,2,0,1,2,0,1,2,0,1,2,0,1,2,0,1,2,0,1,2,0,1,2,0,1,2,0,1,2,0,1,2,0,1,2,0,1,2,0,1,2,0,1,2,0,1,2,0,1,2,0,1,2,0,1,2,0,1,2,0,1,2,0,1,2,0,1,2,0,1,2,0,1,2,0,1,2,0,1,2,0,1,2,0,1,2,0,1,2,0,1,2,0,1,2,0,1,2,0,1,2,0,1,2,0,1,2,0,1,2,0,1,2,0,1,2,0,1,2,0,1,2,0,1,2,0,1,2,0,1,2,0,1,2,0,1,2,0,1,2,0,1,2,0,1,2,0,1,2,0,1,2,0,1,2,0,1,2,0,1,2,0,1,2,0,1,2,0,1,2,0,1,2,0,1,2,0,1,2,0,1,2,0,1,2,0,1,2,0,1,2,0,1,2,0,1,2,0,1,2,0,1,2,0,1,2,0,1,2,0,1,2,0,1,2,0,1,2,0,1,2,0,1,2,0,1,2,0,1,2,0,1,2,0,1,2,0,1,2,0,1,2,0,1,2,0,1,2,0,1,2,0,1,2,0,1,2,0,1,2,0,1,2,0,1,2,0,1,2,0,1,2,0,1,2,0,1,2,0,1,2,0,1,2,0,1,2,0,1,2,0,1,2,0,1,2,0,1,2,0,1,2,0,1,2,0,1,2,0,1,2,0,1,2,0,1,2,0,1,2,0,1,2,0,1,2,0,1,2,0,1,2,0,1,2],"trees":[{"base_weights":[8.7762487E-1,-5.820896E-1,1.117746E0,-5.4023754E-2,-4.6712295E-3,9.2574365E-2,4.709222E-2],"categories":[],"categories_nodes":[],"categories_segments":[],"categories_sizes":[],"default_left":[0,0,0,0,0,0,0],"id":0,"left_children":[1,3,5,-1,-1,-1,-1],"loss_changes":[5.443419E1,1.4221888E0,5.572632E0,0E0,0E0,0E0,0E0],"parents":[2147483647,0,0,1,1,2,2],"right_children":[2,4,6,-1,-1,-1,-1],"split_conditions":[2.6E1,5.1556087E-1,7.6175224E1,-5.4023754E-2,-4.6712295E-3,9.2574365E-2,4.709222E-2],"split_indices":[3,7,2,0,0,0,0],"split_type":[0,0,0,0,0,0,0],"sum_hessian":[1.5244444E2,2.1333332E1,1.311111E2,1.6888887E1,4.444444E0,1.08888885E2,2.2222221E1],"tree_param":{"num_deleted":"0","num_feature":"23","num_nodes":"7","size_leaf_vector":"1"}},{"base_weights":[-5.9050244E-1,3.0518679E-2,-6.182075E-1,-4.839675E-2,-2.7285827E-9],"categories":[],"categories_nodes":[],"categories_segments":[],"categories_sizes":[],"default_left":[0,0,0,0,0],"id":1,"left_children":[1,-1,3,-1,-1],"loss_changes":[4.6776276E0,0E0,1.5685692E0,0E0,0E0],"parents":[2147483647,0,0,2,2],"right_children":[2,-1,4,-1,-1],"split_conditions":[-8.43448E-1,3.0518679E-2,1.6086805E0,-4.839675E-2,-2.7285827E-9],"split_indices":[5,0,15,0,0],"split_type":[0,0,0,0,0],"sum_hessian":[1.6044443E2,3.9999998E0,1.5644443E2,1.5244444E2,3.9999998E0],"tree_param":{"num_deleted":"0","num_feature":"23","num_nodes":"5","size_leaf_vector":"1"}},{"base_weights":[-2.5587648E-1,1.1012658E0,-5.091198E-1,9.3876585E-2,-1.5785526E-2,2.9256627E-2,-4.6502743E-2],"categories":[],"categories_nodes":[],"categories_segments":[],"categories_sizes":[],"default_left":[0,0,0,0,0,0,0],"id":2,"left_children":[1,3,5,-1,-1,-1,-1],"loss_changes":[5.7421814E1,4.7035255E0,1.2787121E1,0E0,0E0,0E0,0E0],"parents":[2147483647,0,0,1,1,2,2],"right_children":[2,4,6,-1,-1,-1,-1],"split_conditions":[2.6E1,3.8115668E-1,-1.001984E0,9.3876585E-2,-1.5785526E-2,2.9256627E-2,-4.6502743E-2],"split_indices":[3,21,22,0,0,0,0],"split_type":[0,0,0,0,0,0,0],"sum_hessian":[1.6444443E2,2.5333332E1,1.391111E2,2.311111E1,2.222222E0,1.3777777E1,1.2533333E2],"tree_param":{"num_deleted":"0","num_feature":"23","num_nodes":"7","size_leaf_vector":"1"}},{"base_weights":[7.538087E-1,-5.0637566E-2,9.8917466E-1,6.7474744E-3,8.1959836E-2],"categories":[],"categories_nodes":[],"categories_segments":[],"categories_sizes":[],"default_left":[0,0,0,0,0],"id":3,"left_children":[1,-1,3,-1,-1],"loss_changes":[5.7496178E1,0E0,1.1128738E1,0E0,0E0],"parents":[2147483647,0,0,2,2],"right_children":[2,-1,4,-1,-1],"split_conditions":[2.6E1,-5.0637566E-2,-1.001984E0,6.7474744E-3,8.1959836E-2],"split_indices":[3,0,22,0,0],"split_type":[0,0,0,0,0],"sum_hessian":[1.6936662E2,2.3858427E1,1.4550821E2,1.2729962E1,1.3277824E2],"tree_param":{"num_deleted":"0","num_feature":"23","num_nodes":"5","size_leaf_vector":"1"}},{"base_weights":[-5.6253755E-1,-4.6465363E-2,-2.6168376E-1,-3.2179654E-2,2.570413E-2],"categories":[],"categories_nodes":[],"categories_segments":[],"categories_sizes":[],"default_left":[0,0,0,0,0],"id":4,"left_children":[1,-1,3,-1,-1],"loss_changes":[2.031395E0,0E0,2.3191156E0,0E0,0E0],"parents":[2147483647,0,0,2,2],"right_children":[2,-1,4,-1,-1],"split_conditions":[9.223726E-1,-4.6465363E-2,6.9874656E-1,-3.2179654E-2,2.570413E-2],"split_indices":[17,0,6,0,0],"split_type":[0,0,0,0,0],"sum_hessian":[1.5569518E2,1.3397632E2,2.1718851E1,1.7369015E1,4.349836E0],"tree_param":{"num_deleted":"0","num_feature":"23","num_nodes":"5","size_leaf_vector":"1"}},{"base_weights":[-2.4676761E-1,1.0351044E0,-5.022411E-1,9.668028E-3,8.773674E-2,4.364747E-3,-4.4122677E-2],"categories":[],"categories_nodes":[],"categories_segments":[],"categories_sizes":[],"default_left":[0,0,0,0,0,0,0],"id":5,"left_children":[1,3,5,-1,-1,-1,-1],"loss_changes":[5.377699E1,2.7074928E0,5.8319626E0,0E0,0E0,0E0,0E0],"parents":[2147483647,0,0,1,1,2,2],"right_children":[2,4,6,-1,-1,-1,-1],"split_conditions":[2.6E1,6.744969E1,-7.711794E-1,9.668028E-3,8.773674E-2,4.364747E-3,-4.4122677E-2],"split_indices":[3,2,20,0,0,0,0],"split_type":[0,0,0,0,0,0,0],"sum_hessian":[1.6162495E2,2.6351433E1,1.3527353E2,3.1935046E0,2.3157928E1,1.6220224E1,1.190533E2],"tree_param":{"num_deleted":"0","num_feature":"23","num_nodes":"7","size_leaf_vector":"1"}},{"base_weights":[6.9493407E-1,-4.3247752E-2,9.0470725E-1,7.9473056E-2,3.178383E-2],"categories":[],"categories_nodes":[],"categories_segments":[],"categories_sizes":[],"default_left":[0,0,0,0,0],"id":6,"left_children":[1,-1,3,-1,-1],"loss_changes":[4.514113E1,0E0,9.254547E0,0E0,0E0],"parents":[2147483647,0,0,2,2],"right_children":[2,-1,4,-1,-1],"split_conditions":[2.6E1,-4.3247752E-2,7.429432E1,7.9473056E-2,3.178383E-2],"split_indices":[3,0,2,0,0],"split_type":[0,0,0,0,0],"sum_hessian":[1.6760875E2,2.3650509E1,1.4395825E2,1.11536995E2,3.242125E1],"tree_param":{"num_deleted":"0","num_feature":"23","num_nodes":"5","size_leaf_vector":"1"}},{"base_weights":[-5.316977E-1,-5.79742E-1,-2.3822288E-1,-4.5621596E-2,-8.891364E-4,-2.781228E-2,4.4474594E-2],"categories":[],"categories_nodes":[],"categories_segments":[],"categories_sizes":[],"default_left":[0,0,0,0,0,0,0],"id":7,"left_children":[1,3,5,-1,-1,-1,-1],"loss_changes":[2.1066628E0,1.4009209E0,2.7114124E0,0E0,0E0,0E0,0E0],"parents":[2147483647,0,0,1,1,2,2],"right_children":[2,4,6,-1,-1,-1,-1],"split_conditions":[9.223726E-1,2.2230887E0,1.6891508E0,-4.5621596E-2,-8.891364E-4,-2.781228E-2,4.4474594E-2],"split_indices":[17,16,21,0,0,0,0],"split_type":[0,0,0,0,0,0,0],"sum_hessian":[1.5820602E2,1.3511166E2,2.3094358E1,1.3086476E2,4.246916E0,2.0497559E1,2.5967999E0],"tree_param":{"num_deleted":"0","num_feature":"23","num_nodes":"7","size_leaf_vector":"1"}},{"base_weights":[-1.8888763E-1,8.119676E-1,-5.0613475E-1,7.46905E-2,-3.2418992E-2,3.820766E-2,-4.1763194E-2],"categories":[],"categories_nodes":[],"categories_segments":[],"categories_sizes":[],"default_left":[0,0,0,0,0,0,0],"id":8,"left_children":[1,3,5,-1,-1,-1,-1],"loss_changes":[5.210326E1,8.5880165E0,5.4334164E0,0E0,0E0,0E0,0E0],"parents":[2147483647,0,0,1,1,2,2],"right_children":[2,4,6,-1,-1,-1,-1],"split_conditions":[2.603E1,4.715115E-1,-1.4632298E0,7.46905E-2,-3.2418992E-2,3.820766E-2,-4.1763194E-2],"split_indices":[3,21,21,0,0,0,0],"split_type":[0,0,0,0,0,0,0],"sum_hessian":[1.6180092E2,3.856768E1,1.2323323E2,3.416401E1,4.4036727E0,4.4107037E0,1.18822525E2],"tree_param":{"num_deleted":"0","num_feature":"23","num_nodes":"7","size_leaf_vector":"1"}},{"base_weights":[6.772092E-1,-4.185966E-1,8.6704725E-1,-4.8619907E-2,-1.6402422E-3,7.695078E-2,4.905135E-2],"categories":[],"categories_nodes":[],"categories_segments":[],"categories_sizes":[],"default_left":[0,0,0,0,0,0,0],"id":9,"left_children":[1,3,5,-1,-1,-1,-1],"loss_changes":[3.6527725E1,2.2737093E0,4.0624313E0,0E0,0E0,0E0,0E0],"parents":[2147483647,0,0,1,1,2,2],"right_children":[2,4,6,-1,-1,-1,-1],"split_conditions":[-1.001984E0,-7.260489E-1,6.9577E1,-4.8619907E-2,-1.6402422E-3,7.695078E-2,4.905135E-2],"split_indices":[22,21,2,0,0,0,0],"split_type":[0,0,0,0,0,0,0],"sum_hessian":[1.7284773E2,2.534475E1,1.4750299E2,1.5954879E1,9.389871E0,8.826964E1,5.923335E1],"tree_param":{"num_deleted":"0","num_feature":"23","num_nodes":"7","size_leaf_vector":"1"}},{"base_weights":[-5.11516E-1,-5.328887E-1,2.0977792E-1,-4.3200534E-2,-1.3255958E-2,6.1937712E-2,-3.5899516E-2],"categories":[],"categories_nodes":[],"categories_segments":[],"categories_sizes":[],"default_left":[0,0,0,0,0,0,0],"id":10,"left_children":[1,3,5,-1,-1,-1,-1],"loss_changes":[2.4776573E0,1.6891518E0,2.4846873E0,0E0,0E0,0E0,0E0],"parents":[2147483647,0,0,1,1,2,2],"right_children":[2,4,6,-1,-1,-1,-1],"split_conditions":[1.1512756E0,1.0462878E0,-4.91406E-3,-4.3200534E-2,-1.3255958E-2,6.1937712E-2,-3.5899516E-2],"split_indices":[6,17,8,0,0,0,0],"split_type":[0,0,0,0,0,0,0],"sum_hessian":[1.5246841E2,1.4833432E2,4.1341076E0,1.352102E2,1.3124112E1,2.0906923E0,2.0434155E0],"tree_param":{"num_deleted":"0","num_feature":"23","num_nodes":"7","size_leaf_vector":"1"}},{"base_weights":[-2.1128891E-1,3.416952E-1,-4.69523E-1,3.6977008E-2,-3.9891984E-2,3.6305804E-2,-3.7552293E-2],"categories":[],"categories_nodes":[],"categories_segments":[],"categories_sizes":[],"default_left":[0,0,0,0,0,0,0],"id":11,"left_children":[1,3,5,-1,-1,-1,-1],"loss_changes":[2.3341278E1,6.7113833E0,2.6142216E0,0E0,0E0,0E0,0E0],"parents":[2147483647,0,0,1,1,2,2],"right_children":[2,4,6,-1,-1,-1,-1],"split_conditions":[-3.2421598E-1,7.1296567E-1,-1.7253484E0,3.6977008E-2,-3.9891984E-2,3.6305804E-2,-3.7552293E-2],"split_indices":[20,10,13,0,0,0,0],"split_type":[0,0,0,0,0,0,0],"sum_hessian":[1.6133157E2,5.12536E1,1.1007797E2,4.43584E1,6.895202E0,2.1091008E0,1.0796887E2],"tree_param":{"num_deleted":"0","num_feature":"23","num_nodes":"7","size_leaf_vector":"1"}},{"base_weights":[5.9550166E-1,-2.861206E-1,7.364676E-1,-4.5934536E-2,1.0020075E-2,3.343284E-2,6.557509E-2],"categories":[],"categories_nodes":[],"categories_segments":[],"categories_sizes":[],"default_left":[0,0,0,0,0,0,0],"id":12,"left_children":[1,3,5,-1,-1,-1,-1],"loss_changes":[2.266085E1,3.458278E0,5.347748E0,0E0,0E0,0E0,0E0],"parents":[2147483647,0,0,1,1,2,2],"right_children":[2,4,6,-1,-1,-1,-1],"split_conditions":[-1.001984E0,-1.4799333E0,-1.7965513E-1,-4.5934536E-2,1.0020075E-2,3.343284E-2,6.557509E-2],"split_indices":[22,22,22,0,0,0,0],"split_type":[0,0,0,0,0,0,0],"sum_hessian":[1.7964345E2,2.462228E1,1.5502116E2,1.3763628E1,1.0858652E1,4.6595947E1,1.0842522E2],"tree_param":{"num_deleted":"0","num_feature":"23","num_nodes":"7","size_leaf_vector":"1"}},{"base_weights":[-5.0181454E-1,4.666907E-2,-5.2593654E-1,-4.419311E-2,-1.2362449E-2],"categories":[],"categories_nodes":[],"categories_segments":[],"categories_sizes":[],"default_left":[0,0,0,0,0],"id":13,"left_children":[1,-1,3,-1,-1],"loss_changes":[4.22295E0,0E0,2.6735535E0,0E0,0E0],"parents":[2147483647,0,0,2,2],"right_children":[2,-1,4,-1,-1],"split_conditions":[-8.43448E-1,4.666907E-2,9.223726E-1,-4.419311E-2,-1.2362449E-2],"split_indices":[5,0,17,0,0],"split_type":[0,0,0,0,0],"sum_hessian":[1.4424548E2,2.5420957E0,1.4170338E2,1.23086784E2,1.8616606E1],"tree_param":{"num_deleted":"0","num_feature":"23","num_nodes":"5","size_leaf_vector":"1"}},{"base_weights":[-2.4136837E-1,8.3564043E-1,-4.605372E-1,2.8589157E-2,7.657099E-2,2.0741513E-2,-3.8795218E-2],"categories":[],"categories_nodes":[],"categories_segments":[],"categories_sizes":[],"default_left":[0,0,0,0,0,0,0],"id":14,"left_children":[1,3,5,-1,-1,-1,-1],"loss_changes":[3.7366016E1,1.7022533E0,4.7316227E0,0E0,0E0,0E0,0E0],"parents":[2147483647,0,0,1,1,2,2],"right_children":[2,4,6,-1,-1,-1,-1],"split_conditions":[2.6E1,3.0226E4,-1.3795426E0,2.8589157E-2,7.657099E-2,2.0741513E-2,-3.8795218E-2],"split_indices":[3,0,18,0,0,0,0],"split_type":[0,0,0,0,0,0,0],"sum_hessian":[1.5566885E2,2.5846216E1,1.2982263E2,7.7655797E0,1.8080635E1,7.6889477E0,1.2213369E2],"tree_param":{"num_deleted":"0","num_feature":"23","num_nodes":"7","size_leaf_vector":"1"}},{"base_weights":[5.5651003E-1,-3.9414218E-1,7.886626E-1,-3.998472E-2,3.492903E-2,3.731706E-2,6.909352E-2],"categories":[],"categories_nodes":[],"categories_segments":[],"categories_sizes":[],"default_left":[0,0,0,0,0,0,0],"id":15,"left_children":[1,3,5,-1,-1,-1,-1],"loss_changes":[3.9670784E1,4.1883616E0,4.5894547E0,0E0,0E0,0E0,0E0],"parents":[2147483647,0,0,1,1,2,2],"right_children":[2,4,6,-1,-1,-1,-1],"split_conditions":[2.603E1,3.7846205E-1,2.828E1,-3.998472E-2,3.492903E-2,3.731706E-2,6.909352E-2],"split_indices":[3,20,3,0,0,0,0],"split_type":[0,0,0,0,0,0,0],"sum_hessian":[1.7734431E2,3.4670937E1,1.4267339E2,3.041703E1,4.253907E0,4.1510296E1,1.01163086E2],"tree_param":{"num_deleted":"0","num_feature":"23","num_nodes":"7","size_leaf_vector":"1"}},{"base_weights":[-5.026572E-1,-1.3997468E-1,-4.2659648E-2,-2.9339954E-2,3.536668E-2],"categories":[],"categories_nodes":[],"categories_segments":[],"categories_sizes":[],"default_left":[0,0,0,0,0],"id":16,"left_children":[1,3,-1,-1,-1],"loss_changes":[2.9771385E0,3.341837E0,0E0,0E0,0E0],"parents":[2147483647,0,0,1,1],"right_children":[2,4,-1,-1,-1],"split_conditions":[-9.825981E-1,4.0926987E-1,-4.2659648E-2,-2.9339954E-2,3.536668E-2],"split_indices":[10,17,0,0,0],"split_type":[0,0,0,0,0],"sum_hessian":[1.4818141E2,2.0432669E1,1.2774874E2,1.4798403E1,5.6342654E0],"tree_param":{"num_deleted":"0","num_feature":"23","num_nodes":"5","size_leaf_vector":"1"}},{"base_weights":[-1.9733933E-1,6.5971065E-1,-4.5424944E-1,7.18231E-2,1.818117E-2,-1.0488528E-2,-4.11222E-2],"categories":[],"categories_nodes":[],"categories_segments":[],"categories_sizes":[],"default_left":[0,0,0,0,0,0,0],"id":17,"left_children":[1,3,5,-1,-1,-1,-1],"loss_changes":[3.4920685E1,4.12827E0,3.1887283E0,0E0,0E0,0E0,0E0],"parents":[2147483647,0,0,1,1,2,2],"right_children":[2,4,6,-1,-1,-1,-1],"split_conditions":[2.603E1,2.439E1,-3.2421598E-1,7.18231E-2,1.818117E-2,-1.0488528E-2,-4.11222E-2],"split_indices":[3,3,20,0,0,0,0],"split_type":[0,0,0,0,0,0,0],"sum_hessian":[1.5623616E2,3.56708E1,1.2056535E2,2.064127E1,1.5029528E1,2.5995705E1,9.456965E1],"tree_param":{"num_deleted":"0","num_feature":"23","num_nodes":"7","size_leaf_vector":"1"}},{"base_weights":[5.246264E-1,-4.962443E-2,6.5148914E-1,2.3770185E-2,6.40773E-2],"categories":[],"categories_nodes":[],"categories_segments":[],"categories_sizes":[],"default_left":[0,0,0,0,0],"id":18,"left_children":[1,-1,3,-1,-1],"loss_changes":[2.7105518E1,0E0,1.0114136E1,0E0,0E0],"parents":[2147483647,0,0,2,2],"right_children":[2,-1,4,-1,-1],"split_conditions":[2.439E1,-4.962443E-2,2.898E1,2.3770185E-2,6.40773E-2],"split_indices":[3,0,3,0,0],"split_type":[0,0,0,0,0],"sum_hessian":[1.7798961E2,1.6941896E1,1.6104771E2,5.8365124E1,1.0268259E2],"tree_param":{"num_deleted":"0","num_feature":"23","num_nodes":"5","size_leaf_vector":"1"}},{"base_weights":[-4.9579433E-1,2.842773E-2,-5.195647E-1,-4.2212434E-2,-6.027959E-3],"categories":[],"categories_nodes":[],"categories_segments":[],"categories_sizes":[],"default_left":[0,0,0,0,0],"id":19,"left_children":[1,-1,3,-1,-1],"loss_changes":[3.1041183E0,0E0,2.0002518E0,0E0,0E0],"parents":[2147483647,0,0,2,2],"right_children":[2,-1,4,-1,-1],"split_conditions":[-8.43448E-1,2.842773E-2,1.0788951E0,-4.2212434E-2,-6.027959E-3],"split_indices":[5,0,17,0,0],"split_type":[0,0,0,0,0],"sum_hessian":[1.4000069E2,3.3391426E0,1.3666154E2,1.2671238E2,9.9491625E0],"tree_param":{"num_deleted":"0","num_feature":"23","num_nodes":"5","size_leaf_vector":"1"}},{"base_weights":[-2.1067537E-1,6.2498635E-1,-4.6474797E-1,5.5737454E-2,-2.6466938E-2,3.0389344E-2,-3.8634706E-2],"categories":[],"categories_nodes":[],"categories_segments":[],"categories_sizes":[],"default_left":[0,0,0,0,0,0,0],"id":20,"left_children":[1,3,5,-1,-1,-1,-1],"loss_changes":[3.1984755E1,3.8674135E0,4.334841E0,0E0,0E0,0E0,0E0],"parents":[2147483647,0,0,1,1,2,2],"right_children":[2,4,6,-1,-1,-1,-1],"split_conditions":[2.603E1,4.715115E-1,-1.4202037E0,5.5737454E-2,-2.6466938E-2,3.0389344E-2,-3.8634706E-2],"split_indices":[3,21,21,0,0,0,0],"split_type":[0,0,0,0,0,0,0],"sum_hessian":[1.4827695E2,3.4230537E1,1.1404641E2,3.1101187E1,3.1293528E0,4.853302E0,1.0919311E2],"tree_param":{"num_deleted":"0","num_feature":"23","num_nodes":"7","size_leaf_vector":"1"}},{"base_weights":[4.8939377E-1,-1.9709267E-1,7.301376E-1,-2.7077591E-2,4.156232E-2,-6.594608E-4,5.9258156E-2],"categories":[],"categories_nodes":[],"categories_segments":[],"categories_sizes":[],"default_left":[0,0,0,0,0,0,0],"id":21,"left_children":[1,3,5,-1,-1,-1,-1],"loss_changes":[2.799952E1,5.408531E0,4.304825E0,0E0,0E0,0E0,0E0],"parents":[2147483647,0,0,1,1,2,2],"right_children":[2,4,6,-1,-1,-1,-1],"split_conditions":[2.8E1,3.8115668E-1,-1.2232566E0,-2.7077591E-2,4.156232E-2,-6.594608E-4,5.9258156E-2],"split_indices":[3,21,16,0,0,0,0],"split_type":[0,0,0,0,0,0,0],"sum_hessian":[1.6754881E2,4.354905E1,1.2399976E2,3.634025E1,7.2087994E0,7.397201E0,1.1660256E2],"tree_param":{"num_deleted":"0","num_feature":"23","num_nodes":"7","size_leaf_vector":"1"}},{"base_weights":[-4.8224103E-1,-5.18208E-1,1.3334912E-1,-2.0632194E-3,-4.1498836E-2,3.463962E-2,-3.5987783E-2],"categories":[],"categories_nodes":[],"categories_segments":[],"categories_sizes":[],"default_left":[0,0,0,0,0,0,0],"id":22,"left_children":[1,3,5,-1,-1,-1,-1],"loss_changes":[3.010254E0,1.5724792E0,1.7911093E0,0E0,0E0,0E0,0E0],"parents":[2147483647,0,0,1,1,2,2],"right_children":[2,4,6,-1,-1,-1,-1],"split_conditions":[1.1533642E0,-1.4392346E0,9.3121016E-1,-2.0632194E-3,-4.1498836E-2,3.463962E-2,-3.5987783E-2],"split_indices":[17,12,22,0,0,0,0],"split_type":[0,0,0,0,0,0,0],"sum_hessian":[1.3183781E2,1.2470962E2,7.128198E0,6.3043003E0,1.1840532E2,4.822113E0,2.306085E0],"tree_param":{"num_deleted":"0","num_feature":"23","num_nodes":"7","size_leaf_vector":"1"}},{"base_weights":[-2.0126973E-1,5.2659535E-1,-4.786454E-1,5.6389373E-2,-4.845466E-3,2.9336717E-2,-4.095208E-2],"categories":[],"categories_nodes":[],"categories_segments":[],"categories_sizes":[],"default_left":[0,0,0,0,0,0,0],"id":23,"left_children":[1,3,5,-1,-1,-1,-1],"loss_changes":[3.0399902E1,5.273078E0,5.6551495E0,0E0,0E0,0E0,0E0],"parents":[2147483647,0,0,1,1,2,2],"right_children":[2,4,6,-1,-1,-1,-1],"split_conditions":[-6.710586E-1,2.898E1,2.439E1,5.6389373E-2,-4.845466E-3,2.9336717E-2,-4.095208E-2],"split_indices":[22,3,3,0,0,0,0],"split_type":[0,0,0,0,0,0,0],"sum_hessian":[1.4832657E2,4.067977E1,1.076468E2,2.9724209E1,1.0955562E1,6.434819E0,1.01211975E2],"tree_param":{"num_deleted":"0","num_feature":"23","num_nodes":"7","size_leaf_vector":"1"}},{"base_weights":[4.973734E-1,1.0360791E-1,6.5064424E-1,-3.080864E-2,2.672953E-2,-1.3588395E-2,5.372386E-2],"categories":[],"categories_nodes":[],"categories_segments":[],"categories_sizes":[],"default_left":[0,0,0,0,0,0,0],"id":24,"left_children":[1,3,5,-1,-1,-1,-1],"loss_changes":[1.0905811E1,6.6679773E0,5.9197197E0,0E0,0E0,0E0,0E0],"parents":[2147483647,0,0,1,1,2,2],"right_children":[2,4,6,-1,-1,-1,-1],"split_conditions":[-5.6184214E-1,-5.152209E-1,-1.3642697E0,-3.080864E-2,2.672953E-2,-1.3588395E-2,5.372386E-2],"split_indices":[10,21,21,0,0,0,0],"split_type":[0,0,0,0,0,0,0],"sum_hessian":[1.8081813E2,5.113193E1,1.296862E2,1.6520397E1,3.4611534E1,7.7230167E0,1.2196318E2],"tree_param":{"num_deleted":"0","num_feature":"23","num_nodes":"7","size_leaf_vector":"1"}},{"base_weights":[-4.5964146E-1,-4.8429108E-1,2.3227073E-2,-3.5504766E-3,-3.9672688E-2],"categories":[],"categories_nodes":[],"categories_segments":[],"categories_sizes":[],"default_left":[0,0,0,0,0],"id":25,"left_children":[1,3,-1,-1,-1],"loss_changes":[2.654148E0,1.9961357E0,0E0,0E0,0E0],"parents":[2147483647,0,0,1,1],"right_children":[2,4,-1,-1,-1],"split_conditions":[1.1512756E0,-8.7514657E-1,2.3227073E-2,-3.5504766E-3,-3.9672688E-2],"split_indices":[6,8,0,0,0],"split_type":[0,0,0,0,0],"sum_hessian":[1.3209465E2,1.2832108E2,3.773572E0,9.84646E0,1.1847462E2],"tree_param":{"num_deleted":"0","num_feature":"23","num_nodes":"5","size_leaf_vector":"1"}},{"base_weights":[-1.8344353E-1,5.3965527E-1,-4.3442956E-1,5.024703E-2,-3.1394336E-2,1.900074E-2,-3.8287126E-2],"categories":[],"categories_nodes":[],"categories_segments":[],"categories_sizes":[],"default_left":[0,0,0,0,0,0,0],"id":26,"left_children":[1,3,5,-1,-1,-1,-1],"loss_changes":[2.7478882E1,4.6963987E0,5.283125E0,0E0,0E0,0E0,0E0],"parents":[2147483647,0,0,1,1,2,2],"right_children":[2,4,6,-1,-1,-1,-1],"split_conditions":[2.603E1,3.4530157E-1,-1.001984E0,5.024703E-2,-3.1394336E-2,1.900074E-2,-3.8287126E-2],"split_indices":[3,21,22,0,0,0,0],"split_type":[0,0,0,0,0,0,0],"sum_hessian":[1.491173E2,3.812572E1,1.1099158E2,3.4162075E1,3.9636486E0,9.719571E0,1.01272E2],"tree_param":{"num_deleted":"0","num_feature":"23","num_nodes":"7","size_leaf_vector":"1"}},{"base_weights":[4.5596427E-1,-5.1015806E-1,5.8174837E-1,-4.8273202E-2,2.3910556E-2,1.6265536E-2,5.3668153E-2],"categories":[],"categories_nodes":[],"categories_segments":[],"categories_sizes":[],"default_left":[0,0,0,0,0,0,0],"id":27,"left_children":[1,3,5,-1,-1,-1,-1],"loss_changes":[2.169902E1,2.299571E0,6.858532E0,0E0,0E0,0E0,0E0],"parents":[2147483647,0,0,1,1,2,2],"right_children":[2,4,6,-1,-1,-1,-1],"split_conditions":[2.6E1,4.715115E-1,-4.05135E-1,-4.8273202E-2,2.3910556E-2,1.6265536E-2,5.3668153E-2],"split_indices":[3,21,22,0,0,0,0],"split_type":[0,0,0,0,0,0,0],"sum_hessian":[1.7511707E2,1.9820902E1,1.5529617E2,1.7455257E1,2.3656454E0,3.9224827E1,1.1607134E2],"tree_param":{"num_deleted":"0","num_feature":"23","num_nodes":"7","size_leaf_vector":"1"}},{"base_weights":[-4.3595147E-1,-4.9408248E-1,-9.301075E-2,-9.705822E-3,-4.1393887E-2,-4.416393E-2,1.950714E-2],"categories":[],"categories_nodes":[],"categories_segments":[],"categories_sizes":[],"default_left":[0,0,0,0,0,0,0],"id":28,"left_children":[1,3,5,-1,-1,-1,-1],"loss_changes":[2.6005268E0,1.9447536E0,3.6161723E0,0E0,0E0,0E0,0E0],"parents":[2147483647,0,0,1,1,2,2],"right_children":[2,4,6,-1,-1,-1,-1],"split_conditions":[9.223726E-1,-1.0885484E0,6.659822E1,-9.705822E-3,-4.1393887E-2,-4.416393E-2,1.950714E-2],"split_indices":[17,10,2,0,0,0,0],"split_type":[0,0,0,0,0,0,0],"sum_hessian":[1.3175226E2,1.1227935E2,1.9472912E1,1.35225115E1,9.8756836E1,7.8605285E0,1.1612382E1],"tree_param":{"num_deleted":"0","num_feature":"23","num_nodes":"7","size_leaf_vector":"1"}},{"base_weights":[-1.9990583E-1,5.6660765E-1,-3.8190985E-1,5.2697897E-2,-4.2676188E-2,-9.902362E-3,-3.8016237E-2],"categories":[],"categories_nodes":[],"categories_segments":[],"categories_sizes":[],"default_left":[0,0,0,0,0,0,0],"id":29,"left_children":[1,3,5,-1,-1,-1,-1],"loss_changes":[2.0103027E1,4.264241E0,3.3322945E0,0E0,0E0,0E0,0E0],"parents":[2147483647,0,0,1,1,2,2],"right_children":[2,4,6,-1,-1,-1,-1],"split_conditions":[-1.001984E0,3.103E4,-1.9319041E-1,5.2697897E-2,-4.2676188E-2,-9.902362E-3,-3.8016237E-2],"split_indices":[22,0,22,0,0,0,0],"split_type":[0,0,0,0,0,0,0],"sum_hessian":[1.4154779E2,2.6755083E1,1.1479271E2,2.444735E1,2.3077326E0,3.6917145E1,7.7875565E1],"tree_param":{"num_deleted":"0","num_feature":"23","num_nodes":"7","size_leaf_vector":"1"}},{"base_weights":[4.5169395E-1,-4.5146625E-2,5.897792E-1,6.0651E-3,5.2998245E-2],"categories":[],"categories_nodes":[],"categories_segments":[],"categories_sizes":[],"default_left":[0,0,0,0,0],"id":30,"left_children":[1,-1,3,-1,-1],"loss_changes":[2.4325207E1,0E0,7.834755E0,0E0,0E0],"parents":[2147483647,0,0,2,2],"right_children":[2,-1,4,-1,-1],"split_conditions":[2.6E1,-4.5146625E-2,-6.710586E-1,6.0651E-3,5.2998245E-2],"split_indices":[3,0,22,0,0],"split_type":[0,0,0,0,0],"sum_hessian":[1.6540833E2,1.8947727E1,1.464606E2,2.5264774E1,1.2119582E2],"tree_param":{"num_deleted":"0","num_feature":"23","num_nodes":"5","size_leaf_vector":"1"}},{"base_weights":[-4.3897387E-1,-6.1480552E-2,-4.9152395E-1,-2.2332001E-2,5.061876E-2,-3.929866E-2,2.553538E-2],"categories":[],"categories_nodes":[],"categories_segments":[],"categories_sizes":[],"default_left":[0,0,0,0,0,0,0],"id":31,"left_children":[1,3,5,-1,-1,-1,-1],"loss_changes":[2.4500332E0,2.9466667E0,2.3053303E0,0E0,0E0,0E0,0E0],"parents":[2147483647,0,0,1,1,2,2],"right_children":[2,4,6,-1,-1,-1,-1],"split_conditions":[-1.0289625E0,5.78339E-1,1.6086805E0,-2.2332001E-2,5.061876E-2,-3.929866E-2,2.553538E-2],"split_indices":[10,14,15,0,0,0,0],"split_type":[0,0,0,0,0,0,0],"sum_hessian":[1.2402979E2,1.5421248E1,1.0860854E2,1.21440735E1,3.2771745E0,1.0596438E2,2.6441662E0],"tree_param":{"num_deleted":"0","num_feature":"23","num_nodes":"7","size_leaf_vector":"1"}},{"base_weights":[-1.5909564E-1,6.87455E-1,-3.5396487E-1,6.023776E-2,-2.0705115E-2,1.0210472E-2,-3.728324E-2],"categories":[],"categories_nodes":[],"categories_segments":[],"categories_sizes":[],"default_left":[0,0,0,0,0,0,0],"id":32,"left_children":[1,3,5,-1,-1,-1,-1],"loss_changes":[2.3637522E1,2.8443737E0,7.6828194E0,0E0,0E0,0E0,0E0],"parents":[2147483647,0,0,1,1,2,2],"right_children":[2,4,6,-1,-1,-1,-1],"split_conditions":[2.6E1,3.8115668E-1,-6.710586E-1,6.023776E-2,-2.0705115E-2,1.0210472E-2,-3.728324E-2],"split_indices":[3,21,22,0,0,0,0],"split_type":[0,0,0,0,0,0,0],"sum_hessian":[1.408116E2,2.5875502E1,1.149361E2,2.354571E1,2.3297923E0,2.4871752E1,9.006434E1],"tree_param":{"num_deleted":"0","num_feature":"23","num_nodes":"7","size_leaf_vector":"1"}},{"base_weights":[4.4923112E-1,-4.655253E-2,5.527321E-1,3.0127877E-2,5.9873126E-2],"categories":[],"categories_nodes":[],"categories_segments":[],"categories_sizes":[],"default_left":[0,0,0,0,0],"id":33,"left_children":[1,-1,3,-1,-1],"loss_changes":[1.844331E1,0E0,5.218731E0,0E0,0E0],"parents":[2147483647,0,0,2,2],"right_children":[2,-1,4,-1,-1],"split_conditions":[2.439E1,-4.655253E-2,2.903E1,3.0127877E-2,5.9873126E-2],"split_indices":[3,0,3,0,0],"split_type":[0,0,0,0,0],"sum_hessian":[1.641303E2,1.4172528E1,1.4995778E2,9.08483E1,5.9109478E1],"tree_param":{"num_deleted":"0","num_feature":"23","num_nodes":"5","size_leaf_vector":"1"}},{"base_weights":[-3.993316E-1,-4.7003543E-1,-2.3215527E-2,-3.827465E-2,1.8217496E-3,2.2772493E-2,-2.4227694E-2],"categories":[],"categories_nodes":[],"categories_segments":[],"categories_sizes":[],"default_left":[0,0,0,0,0,0,0],"id":34,"left_children":[1,3,5,-1,-1,-1,-1],"loss_changes":[3.168293E0,1.5828094E0,1.9855407E0,0E0,0E0,0E0,0E0],"parents":[2147483647,0,0,1,1,2,2],"right_children":[2,4,6,-1,-1,-1,-1],"split_conditions":[9.182174E-1,2.1535604E0,3.0384E4,-3.827465E-2,1.8217496E-3,2.2772493E-2,-2.4227694E-2],"split_indices":[17,19,0,0,0,0,0],"split_type":[0,0,0,0,0,0,0],"sum_hessian":[1.1855115E2,9.958167E1,1.8969479E1,9.357537E1,6.006299E0,9.056786E0,9.912693E0],"tree_param":{"num_deleted":"0","num_feature":"23","num_nodes":"7","size_leaf_vector":"1"}},{"base_weights":[-1.2284653E-1,6.329787E-1,-3.3887386E-1,5.4590676E-2,-1.9671941E-2,-2.306018E-3,-3.7451986E-2],"categories":[],"categories_nodes":[],"categories_segments":[],"categories_sizes":[],"default_left":[0,0,0,0,0,0,0],"id":35,"left_children":[1,3,5,-1,-1,-1,-1],"loss_changes":[2.2413076E1,2.4318056E0,4.976186E0,0E0,0E0,0E0,0E0],"parents":[2147483647,0,0,1,1,2,2],"right_children":[2,4,6,-1,-1,-1,-1],"split_conditions":[2.6E1,4.715115E-1,-3.554516E-1,5.4590676E-2,-1.9671941E-2,-2.306018E-3,-3.7451986E-2],"split_indices":[3,21,22,0,0,0,0],"split_type":[0,0,0,0,0,0,0],"sum_hessian":[1.3495496E2,2.9569311E1,1.0538565E2,2.7242332E1,2.326978E0,3.516942E1,7.021623E1],"tree_param":{"num_deleted":"0","num_feature":"23","num_nodes":"7","size_leaf_vector":"1"}},{"base_weights":[3.759217E-1,-3.8842794E-2,5.3731173E-1,-1.12296585E-2,5.0458692E-2,4.8109744E-2,1.9953968E-2],"categories":[],"categories_nodes":[],"categories_segments":[],"categories_sizes":[],"default_left":[0,0,0,0,0,0,0],"id":36,"left_children":[1,3,5,-1,-1,-1,-1],"loss_changes":[1.1327759E1,3.757412E0,2.96389E0,0E0,0E0,0E0,0E0],"parents":[2147483647,0,0,1,1,2,2],"right_children":[2,4,6,-1,-1,-1,-1],"split_conditions":[-3.4355572E-1,8.033445E-1,6.492355E-1,-1.12296585E-2,5.0458692E-2,4.8109744E-2,1.9953968E-2],"split_indices":[20,10,4,0,0,0,0],"split_type":[0,0,0,0,0,0,0],"sum_hessian":[1.6791364E2,4.724798E1,1.2066566E2,4.1600834E1,5.6471443E0,8.921351E1,3.145215E1],"tree_param":{"num_deleted":"0","num_feature":"23","num_nodes":"7","size_leaf_vector":"1"}},{"base_weights":[-3.9418626E-1,3.485013E-2,-4.2143056E-1,-3.4099024E-2,7.877704E-3],"categories":[],"categories_nodes":[],"categories_segments":[],"categories_sizes":[],"default_left":[0,0,0,0,0],"id":37,"left_children":[1,-1,3,-1,-1],"loss_changes":[2.8987465E0,0E0,1.5661964E0,0E0,0E0],"parents":[2147483647,0,0,2,2],"right_children":[2,-1,4,-1,-1],"split_conditions":[-8.43448E-1,3.485013E-2,1.237132E0,-3.4099024E-2,7.877704E-3],"split_indices":[5,0,17,0,0],"split_type":[0,0,0,0,0],"sum_hessian":[1.1573043E2,3.1011891E0,1.1262924E2,1.0755117E2,5.078071E0],"tree_param":{"num_deleted":"0","num_feature":"23","num_nodes":"5","size_leaf_vector":"1"}},{"base_weights":[-8.513043E-2,5.3210557E-1,-3.3138365E-1,4.888544E-2,-2.7752133E-2,3.6922503E-2,-2.9559165E-2],"categories":[],"categories_nodes":[],"categories_segments":[],"categories_sizes":[],"default_left":[0,0,0,0,0,0,0],"id":38,"left_children":[1,3,5,-1,-1,-1,-1],"loss_changes":[1.9884539E1,3.8686543E0,4.4504623E0,0E0,0E0,0E0,0E0],"parents":[2147483647,0,0,1,1,2,2],"right_children":[2,4,6,-1,-1,-1,-1],"split_conditions":[2.603E1,4.715115E-1,-1.2404367E0,4.888544E-2,-2.7752133E-2,3.6922503E-2,-2.9559165E-2],"split_indices":[3,21,16,0,0,0,0],"split_type":[0,0,0,0,0,0,0],"sum_hessian":[1.2866237E2,3.636139E1,9.230098E1,3.2683277E1,3.678115E0,5.44516E0,8.685582E1],"tree_param":{"num_deleted":"0","num_feature":"23","num_nodes":"7","size_leaf_vector":"1"}},{"base_weights":[3.5754552E-1,-2.4308774E-1,5.7497513E-1,-3.65857E-2,1.7841604E-2,2.1572242E-2,4.9575917E-2],"categories":[],"categories_nodes":[],"categories_segments":[],"categories_sizes":[],"default_left":[0,0,0,0,0,0,0],"id":39,"left_children":[1,3,5,-1,-1,-1,-1],"loss_changes":[2.0935986E1,4.963929E0,2.3785782E0,0E0,0E0,0E0,0E0],"parents":[2147483647,0,0,1,1,2,2],"right_children":[2,4,6,-1,-1,-1,-1],"split_conditions":[2.8E1,-2.4141489E-1,-3.4355572E-1,-3.65857E-2,1.7841604E-2,2.1572242E-2,4.9575917E-2],"split_indices":[3,22,20,0,0,0,0],"split_type":[0,0,0,0,0,0,0],"sum_hessian":[1.5824147E2,4.202699E1,1.1621447E2,2.8094309E1,1.3932681E1,2.4658915E1,9.155556E1],"tree_param":{"num_deleted":"0","num_feature":"23","num_nodes":"7","size_leaf_vector":"1"}},{"base_weights":[-4.3074888E-1,-4.5336226E-1,3.6406144E-2,9.643493E-3,-3.681836E-2],"categories":[],"categories_nodes":[],"categories_segments":[],"categories_sizes":[],"default_left":[0,0,0,0,0],"id":40,"left_children":[1,3,-1,-1,-1],"loss_changes":[2.5086937E0,1.9142933E0,0E0,0E0,0E0],"parents":[2147483647,0,0,1,1],"right_children":[2,4,-1,-1,-1],"split_conditions":[1.5842464E0,-1.0240144E0,3.6406144E-2,9.643493E-3,-3.681836E-2],"split_indices":[15,8,0,0,0],"split_type":[0,0,0,0,0],"sum_hessian":[1.1065391E2,1.0845332E2,2.2005873E0,5.0418334E0,1.0341148E2],"tree_param":{"num_deleted":"0","num_feature":"23","num_nodes":"5","size_leaf_vector":"1"}},{"base_weights":[-1.4450017E-1,2.5001934E-1,-4.3664935E-1,3.6709752E-2,-8.798985E-3,-9.62848E-3,-4.075834E-2],"categories":[],"categories_nodes":[],"categories_segments":[],"categories_sizes":[],"default_left":[0,0,0,0,0,0,0],"id":41,"left_children":[1,3,5,-1,-1,-1,-1],"loss_changes":[1.4157967E1,4.4881783E0,2.0646505E0,0E0,0E0,0E0,0E0],"parents":[2147483647,0,0,1,1,2,2],"right_children":[2,4,6,-1,-1,-1,-1],"split_conditions":[-3.6663646E-1,1.5510285E-1,-6.472475E-1,3.6709752E-2,-8.798985E-3,-9.62848E-3,-4.075834E-2],"split_indices":[22,9,10,0,0,0,0],"split_type":[0,0,0,0,0,0,0],"sum_hessian":[1.20889404E2,5.1494804E1,6.93946E1,3.1347033E1,2.0147774E1,1.7141293E1,5.2253304E1],"tree_param":{"num_deleted":"0","num_feature":"23","num_nodes":"7","size_leaf_vector":"1"}},{"base_weights":[3.2714686E-1,-1.4736246E-1,5.081866E-1,-4.5731086E-2,3.8727077E-3,4.876757E-2,2.0841988E-2],"categories":[],"categories_nodes":[],"categories_segments":[],"categories_sizes":[],"default_left":[0,0,0,0,0,0,0],"id":42,"left_children":[1,3,5,-1,-1,-1,-1],"loss_changes":[1.410198E1,4.1382375E0,3.4710236E0,0E0,0E0,0E0,0E0],"parents":[2147483647,0,0,1,1,2,2],"right_children":[2,4,6,-1,-1,-1,-1],"split_conditions":[2.8E1,2.439E1,7.075154E1,-4.5731086E-2,3.8727077E-3,4.876757E-2,2.0841988E-2],"split_indices":[3,3,2,0,0,0,0],"split_type":[0,0,0,0,0,0,0],"sum_hessian":[1.6228606E2,4.486911E1,1.17416954E2,1.30559635E1,3.1813147E1,7.4288994E1,4.3127956E1],"tree_param":{"num_deleted":"0","num_feature":"23","num_nodes":"7","size_leaf_vector":"1"}},{"base_weights":[-3.794542E-1,1.8538447E-1,-3.268699E-2,3.335666E-2,-3.250123E-2],"categories":[],"categories_nodes":[],"categories_segments":[],"categories_sizes":[],"default_left":[0,0,0,0,0],"id":43,"left_children":[1,3,-1,-1,-1],"loss_changes":[3.0092087E0,1.5946472E0,0E0,0E0,0E0],"parents":[2147483647,0,0,1,1],"right_children":[2,4,-1,-1,-1],"split_conditions":[-7.864221E-1,-4.1861725E-1,-3.268699E-2,3.335666E-2,-3.250123E-2],"split_indices":[5,8,0,0,0],"split_type":[0,0,0,0,0],"sum_hessian":[1.04931206E2,8.148467E0,9.678274E1,5.9731297E0,2.175337E0],"tree_param":{"num_deleted":"0","num_feature":"23","num_nodes":"5","size_leaf_vector":"1"}},{"base_weights":[-6.515223E-2,4.721735E-1,-3.096955E-1,-4.2158863E-4,4.9551003E-2,1.1820031E-4,-3.2194927E-2],"categories":[],"categories_nodes":[],"categories_segments":[],"categories_sizes":[],"default_left":[0,0,0,0,0,0,0],"id":44,"left_children":[1,3,5,-1,-1,-1,-1],"loss_changes":[1.6299253E1,3.2931843E0,2.9739676E0,0E0,0E0,0E0,0E0],"parents":[2147483647,0,0,1,1,2,2],"right_children":[2,4,6,-1,-1,-1,-1],"split_conditions":[-6.710586E-1,7.00178E1,-6.027732E-1,-4.2158863E-4,4.9551003E-2,1.1820031E-4,-3.2194927E-2],"split_indices":[22,2,10,0,0,0,0],"split_type":[0,0,0,0,0,0,0],"sum_hessian":[1.21930725E2,3.7844845E1,8.4085884E1,1.0505419E1,2.7339424E1,2.2552526E1,6.1533356E1],"tree_param":{"num_deleted":"0","num_feature":"23","num_nodes":"7","size_leaf_vector":"1"}},{"base_weights":[3.3258185E-1,-3.822991E-2,4.290988E-1,1.3611649E-2,4.3141767E-2],"categories":[],"categories_nodes":[],"categories_segments":[],"categories_sizes":[],"default_left":[0,0,0,0,0],"id":45,"left_children":[1,-1,3,-1,-1],"loss_changes":[1.2892141E1,0E0,4.7442493E0,0E0,0E0],"parents":[2147483647,0,0,2,2],"right_children":[2,-1,4,-1,-1],"split_conditions":[2.6E1,-3.822991E-2,2.898E1,1.3611649E-2,4.3141767E-2],"split_indices":[3,0,3,0,0],"split_type":[0,0,0,0,0],"sum_hessian":[1.5655539E2,1.5809725E1,1.4074567E2,5.0395454E1,9.035021E1],"tree_param":{"num_deleted":"0","num_feature":"23","num_nodes":"5","size_leaf_vector":"1"}},{"base_weights":[-3.6854464E-1,-3.27794E-2,-3.9155964E-2,-2.1325791E-2,4.1861415E-2],"categories":[],"categories_nodes":[],"categories_segments":[],"categories_sizes":[],"default_left":[0,0,0,0,0],"id":46,"left_children":[1,-1,3,-1,-1],"loss_changes":[2.1499643E0,0E0,2.689016E0,0E0,0E0],"parents":[2147483647,0,0,2,2],"right_children":[2,-1,4,-1,-1],"split_conditions":[9.272092E-1,-3.27794E-2,7.350582E1,-2.1325791E-2,4.1861415E-2],"split_indices":[17,0,2,0,0],"split_type":[0,0,0,0,0],"sum_hessian":[1.0668759E2,8.974062E1,1.6946964E1,1.2400858E1,4.546106E0],"tree_param":{"num_deleted":"0","num_feature":"23","num_nodes":"5","size_leaf_vector":"1"}},{"base_weights":[-1.4875157E-1,4.5702655E-2,-2.9398298E-1,-1.2615122E-3,-3.6158342E-2],"categories":[],"categories_nodes":[],"categories_segments":[],"categories_sizes":[],"default_left":[0,0,0,0,0],"id":47,"left_children":[1,-1,3,-1,-1],"loss_changes":[1.3839563E1,0E0,5.2851973E0,0E0,0E0],"parents":[2147483647,0,0,2,2],"right_children":[2,-1,4,-1,-1],"split_conditions":[2.439E1,4.5702655E-2,1.1006575E-2,-1.2615122E-3,-3.6158342E-2],"split_indices":[3,0,20,0,0],"split_type":[0,0,0,0,0],"sum_hessian":[1.2481597E2,1.9791168E1,1.050248E2,4.17463E1,6.3278503E1],"tree_param":{"num_deleted":"0","num_feature":"23","num_nodes":"5","size_leaf_vector":"1"}},{"base_weights":[3.0271864E-1,-1.6185388E-1,4.6216628E-1,-4.419638E-2,2.7513732E-3,1.0660762E-3,3.882219E-2],"categories":[],"categories_nodes":[],"categories_segments":[],"categories_sizes":[],"default_left":[0,0,0,0,0,0,0],"id":48,"left_children":[1,3,5,-1,-1,-1,-1],"loss_changes":[1.2016454E1,3.485066E0,2.5085201E0,0E0,0E0,0E0,0E0],"parents":[2147483647,0,0,1,1,2,2],"right_children":[2,4,6,-1,-1,-1,-1],"split_conditions":[2.8E1,2.439E1,-1.0532212E0,-4.419638E-2,2.7513732E-3,1.0660762E-3,3.882219E-2],"split_indices":[3,3,10,0,0,0,0],"split_type":[0,0,0,0,0,0,0],"sum_hessian":[1.6021031E2,4.0932568E1,1.1927774E2,1.2545812E1,2.8386757E1,1.1370499E1,1.0790724E2],"tree_param":{"num_deleted":"0","num_feature":"23","num_nodes":"7","size_leaf_vector":"1"}},{"base_weights":[-3.305782E-1,3.7625533E-2,-2.743174E-2],"categories":[],"categories_nodes":[],"categories_segments":[],"categories_sizes":[],"default_left":[0,0,0],"id":49,"left_children":[1,-1,-1],"loss_changes":[2.6878824E0,0E0,0E0],"parents":[2147483647,0,0],"right_children":[2,-1,-1],"split_conditions":[-8.475718E-1,3.7625533E-2,-2.743174E-2],"split_indices":[5,0,0],"split_type":[0,0,0],"sum_hessian":[1.042351E2,2.9960344E0,1.0123907E2],"tree_param":{"num_deleted":"0","num_feature":"23","num_nodes":"3","size_leaf_vector":"1"}},{"base_weights":[-1.12994745E-1,2.7716014E-1,-3.292276E-2,3.0636484E-2,-3.3701938E-2],"categories":[],"categories_nodes":[],"categories_segments":[],"categories_sizes":[],"default_left":[0,0,0,0,0],"id":50,"left_children":[1,3,-1,-1,-1],"loss_changes":[1.4843514E1,4.9935417E0,0E0,0E0,0E0],"parents":[2147483647,0,0,1,1],"right_children":[2,4,-1,-1,-1],"split_conditions":[-1.12553015E-1,7.1296567E-1,-3.292276E-2,3.0636484E-2,-3.3701938E-2],"split_indices":[20,10,0,0,0],"split_type":[0,0,0,0,0],"sum_hessian":[1.1748316E2,5.2861702E1,6.462146E1,4.544079E1,7.4209146E0],"tree_param":{"num_deleted":"0","num_feature":"23","num_nodes":"5","size_leaf_vector":"1"}},{"base_weights":[3.0204016E-1,4.6602875E-1,8.1120335E-2,4.1215748E-2,1.2054907E-2,-2.9169513E-2,1.5680782E-2],"categories":[],"categories_nodes":[],"categories_segments":[],"categories_sizes":[],"default_left":[0,0,0,0,0,0,0],"id":51,"left_children":[1,3,5,-1,-1,-1,-1],"loss_changes":[5.7360144E0,1.9997978E0,4.06304E0,0E0,0E0,0E0,0E0],"parents":[2147483647,0,0,1,1,2,2],"right_children":[2,4,6,-1,-1,-1,-1],"split_conditions":[7.00178E1,4.7601172E-1,-8.551272E-1,4.1215748E-2,1.2054907E-2,-2.9169513E-2,1.5680782E-2],"split_indices":[2,13,21,0,0,0,0],"split_type":[0,0,0,0,0,0,0],"sum_hessian":[1.5837303E2,9.026208E1,6.8110954E1,7.213731E1,1.8124767E1,1.3975423E1,5.4135536E1],"tree_param":{"num_deleted":"0","num_feature":"23","num_nodes":"7","size_leaf_vector":"1"}},{"base_weights":[-3.5304394E-1,7.510733E-2,-4.28221E-1,-3.737553E-2,2.6889948E-2,-8.272793E-3,-3.6965698E-2],"categories":[],"categories_nodes":[],"categories_segments":[],"categories_sizes":[],"default_left":[0,0,0,0,0,0,0],"id":52,"left_children":[1,3,5,-1,-1,-1,-1],"loss_changes":[3.128149E0,2.5569885E0,1.4227047E0,0E0,0E0,0E0,0E0],"parents":[2147483647,0,0,1,1,2,2],"right_children":[2,4,6,-1,-1,-1,-1],"split_conditions":[-9.825981E-1,-1.4422843E0,-2.372146E-1,-3.737553E-2,2.6889948E-2,-8.272793E-3,-3.6965698E-2],"split_indices":[10,10,11,0,0,0,0],"split_type":[0,0,0,0,0,0,0],"sum_hessian":[9.518705E1,1.4217262E1,8.096979E1,4.4287267E0,9.788536E0,1.2554972E1,6.841481E1],"tree_param":{"num_deleted":"0","num_feature":"23","num_nodes":"7","size_leaf_vector":"1"}},{"base_weights":[-8.720963E-2,2.2583212E-1,-3.842226E-1,2.7488098E-2,-3.62795E-2,-1.2333833E-3,-3.6992922E-2],"categories":[],"categories_nodes":[],"categories_segments":[],"categories_sizes":[],"default_left":[0,0,0,0,0,0,0],"id":53,"left_children":[1,3,5,-1,-1,-1,-1],"loss_changes":[1.1277462E1,5.7561E0,2.2934208E0,0E0,0E0,0E0,0E0],"parents":[2147483647,0,0,1,1,2,2],"right_children":[2,4,6,-1,-1,-1,-1],"split_conditions":[-1.9319041E-1,2.903E1,-6.710507E-1,2.7488098E-2,-3.62795E-2,-1.2333833E-3,-3.6992922E-2],"split_indices":[22,3,10,0,0,0,0],"split_type":[0,0,0,0,0,0,0],"sum_hessian":[1.19359184E2,5.8228233E1,6.1130955E1,4.926953E1,8.958702E0,1.3374756E1,4.77562E1],"tree_param":{"num_deleted":"0","num_feature":"23","num_nodes":"7","size_leaf_vector":"1"}},{"base_weights":[2.6458806E-1,-1.413746E-1,3.8581795E-1,-2.8263664E-2,1.2257948E-2,-2.5420481E-2,3.234216E-2],"categories":[],"categories_nodes":[],"categories_segments":[],"categories_sizes":[],"default_left":[0,0,0,0,0,0,0],"id":54,"left_children":[1,3,5,-1,-1,-1,-1],"loss_changes":[7.6249647E0,2.5574703E0,3.3918705E0,0E0,0E0,0E0,0E0],"parents":[2147483647,0,0,1,1,2,2],"right_children":[2,4,6,-1,-1,-1,-1],"split_conditions":[-6.4804053E-1,4.9434665E-1,-8.7514657E-1,-2.8263664E-2,1.2257948E-2,-2.5420481E-2,3.234216E-2],"split_indices":[22,6,8,0,0,0,0],"split_type":[0,0,0,0,0,0,0],"sum_hessian":[1.52824E2,3.510424E1,1.17719765E2,1.9834738E1,1.5269501E1,5.5316405E0,1.12188126E2],"tree_param":{"num_deleted":"0","num_feature":"23","num_nodes":"7","size_leaf_vector":"1"}},{"base_weights":[-3.5122567E-1,-3.9880133E-1,2.3168494E-1,-1.9260583E-2,-4.004745E-2,4.9047776E-2,-3.2995835E-2],"categories":[],"categories_nodes":[],"categories_segments":[],"categories_sizes":[],"default_left":[0,0,0,0,0,0,0],"id":55,"left_children":[1,3,5,-1,-1,-1,-1],"loss_changes":[2.6769E0,1.4643345E0,2.3711352E0,0E0,0E0,0E0,0E0],"parents":[2147483647,0,0,1,1,2,2],"right_children":[2,4,6,-1,-1,-1,-1],"split_conditions":[1.1533642E0,2.828E1,2.903E1,-1.9260583E-2,-4.004745E-2,4.9047776E-2,-3.2995835E-2],"split_indices":[17,3,3,0,0,0,0],"split_type":[0,0,0,0,0,0,0],"sum_hessian":[9.219452E1,8.5529655E1,6.6648636E0,4.0972767E1,4.4556885E1,4.1362276E0,2.528636E0],"tree_param":{"num_deleted":"0","num_feature":"23","num_nodes":"7","size_leaf_vector":"1"}},{"base_weights":[-1.3318717E-1,4.089463E-2,-3.2535475E-1,6.5870117E-3,-3.4244455E-2],"categories":[],"categories_nodes":[],"categories_segments":[],"categories_sizes":[],"default_left":[0,0,0,0,0],"id":56,"left_children":[1,-1,3,-1,-1],"loss_changes":[1.522936E1,0E0,4.6939707E0,0E0,0E0],"parents":[2147483647,0,0,2,2],"right_children":[2,-1,4,-1,-1],"split_conditions":[2.6E1,4.089463E-2,-6.710586E-1,6.5870117E-3,-3.4244455E-2],"split_indices":[3,0,22,0,0],"split_type":[0,0,0,0,0],"sum_hessian":[1.160727E2,2.5496712E1,9.057599E1,2.096782E1,6.960817E1],"tree_param":{"num_deleted":"0","num_feature":"23","num_nodes":"5","size_leaf_vector":"1"}},{"base_weights":[2.8099677E-1,-4.43292E-2,3.638535E-1,1.6969813E-2,4.7371123E-2],"categories":[],"categories_nodes":[],"categories_segments":[],"categories_sizes":[],"default_left":[0,0,0,0,0],"id":57,"left_children":[1,-1,3,-1,-1],"loss_changes":[1.0710749E1,0E0,4.7595406E0,0E0,0E0],"parents":[2147483647,0,0,2,2],"right_children":[2,-1,4,-1,-1],"split_conditions":[2.439E1,-4.43292E-2,2.903E1,1.6969813E-2,4.7371123E-2],"split_indices":[3,0,3,0,0],"split_type":[0,0,0,0,0],"sum_hessian":[1.4600203E2,1.2275945E1,1.3372609E2,8.746297E1,4.626312E1],"tree_param":{"num_deleted":"0","num_feature":"23","num_nodes":"5","size_leaf_vector":"1"}},{"base_weights":[-3.111918E-1,4.730548E-2,-3.4550855E-1,-3.0675672E-2,1.1904191E-2],"categories":[],"categories_nodes":[],"categories_segments":[],"categories_sizes":[],"default_left":[0,0,0,0,0],"id":58,"left_children":[1,-1,3,-1,-1],"loss_changes":[3.1405191E0,0E0,2.585742E0,0E0,0E0],"parents":[2147483647,0,0,2,2],"right_children":[2,-1,4,-1,-1],"split_conditions":[-8.43448E-1,4.730548E-2,1.0462878E0,-3.0675672E-2,1.1904191E-2],"split_indices":[5,0,17,0,0],"split_type":[0,0,0,0,0],"sum_hessian":[9.0572205E1,2.6124988E0,8.795971E1,7.922522E1,8.7344885E0],"tree_param":{"num_deleted":"0","num_feature":"23","num_nodes":"5","size_leaf_vector":"1"}},{"base_weights":[-1.0983706E-1,4.793448E-1,-2.8042966E-1,4.9372274E-2,4.5036613E-3,-2.3857125E-3,-3.211941E-2],"categories":[],"categories_nodes":[],"categories_segments":[],"categories_sizes":[],"default_left":[0,0,0,0,0,0,0],"id":59,"left_children":[1,3,5,-1,-1,-1,-1],"loss_changes":[1.1725308E1,1.8136501E0,3.1406608E0,0E0,0E0,0E0,0E0],"parents":[2147483647,0,0,1,1,2,2],"right_children":[2,4,6,-1,-1,-1,-1],"split_conditions":[2.6E1,-3.0625454E-1,-4.05135E-1,4.9372274E-2,4.5036613E-3,-2.3857125E-3,-3.211941E-2],"split_indices":[3,22,22,0,0,0,0],"split_type":[0,0,0,0,0,0,0],"sum_hessian":[1.1432067E2,2.5262114E1,8.905856E1,1.766984E1,7.5922723E0,3.256014E1,5.649842E1],"tree_param":{"num_deleted":"0","num_feature":"23","num_nodes":"7","size_leaf_vector":"1"}},{"base_weights":[2.758127E-1,-3.1377083E-1,3.6902153E-1,-4.5205727E-2,2.622396E-3,-4.8885006E-3,3.2713972E-2],"categories":[],"categories_nodes":[],"categories_segments":[],"categories_sizes":[],"default_left":[0,0,0,0,0,0,0],"id":60,"left_children":[1,3,5,-1,-1,-1,-1],"loss_changes":[8.064843E0,1.9889117E0,3.2715816E0,0E0,0E0,0E0,0E0],"parents":[2147483647,0,0,1,1,2,2],"right_children":[2,4,6,-1,-1,-1,-1],"split_conditions":[-9.922223E-1,-1.1659857E-1,-1.001984E0,-4.5205727E-2,2.622396E-3,-4.8885006E-3,3.2713972E-2],"split_indices":[10,22,22,0,0,0,0],"split_type":[0,0,0,0,0,0,0],"sum_hessian":[1.4364816E2,1.9286566E1,1.24361595E2,1.0321282E1,8.965283E0,1.5068579E1,1.09293015E2],"tree_param":{"num_deleted":"0","num_feature":"23","num_nodes":"7","size_leaf_vector":"1"}},{"base_weights":[-3.1199628E-1,-4.210475E-2,-2.1049307E-1,3.411825E-2,-2.1206435E-2],"categories":[],"categories_nodes":[],"categories_segments":[],"categories_sizes":[],"default_left":[0,0,0,0,0],"id":61,"left_children":[1,-1,3,-1,-1],"loss_changes":[2.0577374E0,0E0,2.979309E0,0E0,0E0],"parents":[2147483647,0,0,2,2],"right_children":[2,-1,4,-1,-1],"split_conditions":[6.571937E1,-4.210475E-2,6.691307E1,3.411825E-2,-2.1206435E-2],"split_indices":[2,0,2,0,0],"split_type":[0,0,0,0,0],"sum_hessian":[8.829008E1,2.4933544E1,6.335653E1,5.3699937E0,5.7986538E1],"tree_param":{"num_deleted":"0","num_feature":"23","num_nodes":"5","size_leaf_vector":"1"}},{"base_weights":[-1.3126214E-1,4.6819195E-1,-3.006805E-1,4.4348445E-2,-2.5808102E-2,-3.1768855E-2,6.3581304E-3],"categories":[],"categories_nodes":[],"categories_segments":[],"categories_sizes":[],"default_left":[0,0,0,0,0,0,0],"id":62,"left_children":[1,3,5,-1,-1,-1,-1],"loss_changes":[1.1658093E1,2.5108914E0,3.9903526E0,0E0,0E0,0E0,0E0],"parents":[2147483647,0,0,1,1,2,2],"right_children":[2,4,6,-1,-1,-1,-1],"split_conditions":[2.6E1,4.715115E-1,5.635478E-1,4.4348445E-2,-2.5808102E-2,-3.1768855E-2,6.3581304E-3],"split_indices":[3,21,13,0,0,0,0],"split_type":[0,0,0,0,0,0,0],"sum_hessian":[1.12405716E2,2.4379622E1,8.802609E1,2.1626629E1,2.7529926E0,6.757974E1,2.0446352E1],"tree_param":{"num_deleted":"0","num_feature":"23","num_nodes":"7","size_leaf_vector":"1"}},{"base_weights":[1.5562156E-1,-1.1958077E-1,3.852368E-1,-3.854801E-2,1.0865372E-2,-3.50013E-2,3.4247056E-2],"categories":[],"categories_nodes":[],"categories_segments":[],"categories_sizes":[],"default_left":[0,0,0,0,0,0,0],"id":63,"left_children":[1,3,5,-1,-1,-1,-1],"loss_changes":[8.978603E0,6.645489E0,4.3570976E0,0E0,0E0,0E0,0E0],"parents":[2147483647,0,0,1,1,2,2],"right_children":[2,4,6,-1,-1,-1,-1],"split_conditions":[2.898E1,-5.150605E-1,-1.2404367E0,-3.854801E-2,1.0865372E-2,-3.50013E-2,3.4247056E-2],"split_indices":[3,10,16,0,0,0,0],"split_type":[0,0,0,0,0,0,0],"sum_hessian":[1.4035852E2,6.405976E1,7.629876E1,2.5538242E1,3.852152E1,4.9136977E0,7.138506E1],"tree_param":{"num_deleted":"0","num_feature":"23","num_nodes":"7","size_leaf_vector":"1"}},{"base_weights":[-2.4383327E-1,-2.7952427E-1,4.7667593E-2,7.862958E-3,-2.6486374E-2],"categories":[],"categories_nodes":[],"categories_segments":[],"categories_sizes":[],"default_left":[0,0,0,0,0],"id":64,"left_children":[1,3,-1,-1,-1],"loss_changes":[2.8605113E0,2.2066975E0,0E0,0E0,0E0],"parents":[2147483647,0,0,1,1],"right_children":[2,4,-1,-1,-1],"split_conditions":[1.1512756E0,-9.825981E-1,4.7667593E-2,7.862958E-3,-2.6486374E-2],"split_indices":[6,10,0,0,0],"split_type":[0,0,0,0,0],"sum_hessian":[8.563781E1,8.290923E1,2.7285743E0,1.23750515E1,7.053418E1],"tree_param":{"num_deleted":"0","num_feature":"23","num_nodes":"5","size_leaf_vector":"1"}},{"base_weights":[-1.2313545E-1,4.9243322E-1,-2.6708543E-1,4.7498494E-2,-1.1473565E-2,1.3784446E-2,-2.8094381E-2],"categories":[],"categories_nodes":[],"categories_segments":[],"categories_sizes":[],"default_left":[0,0,0,0,0,0,0],"id":65,"left_children":[1,3,5,-1,-1,-1,-1],"loss_changes":[9.305446E0,1.7642202E0,3.8957486E0,0E0,0E0,0E0,0E0],"parents":[2147483647,0,0,1,1,2,2],"right_children":[2,4,6,-1,-1,-1,-1],"split_conditions":[2.6E1,-2.6175833E-1,-8.683333E-1,4.7498494E-2,-1.1473565E-2,1.3784446E-2,-2.8094381E-2],"split_indices":[3,22,22,0,0,0,0],"split_type":[0,0,0,0,0,0,0],"sum_hessian":[1.02530205E2,1.8973515E1,8.3556694E1,1.5805696E1,3.1678185E0,1.5251371E1,6.830532E1],"tree_param":{"num_deleted":"0","num_feature":"23","num_nodes":"7","size_leaf_vector":"1"}},{"base_weights":[2.314368E-1,-2.0610541E-1,4.1289517E-1,-2.3544254E-2,2.8159106E-2,2.0851921E-2,4.4758003E-2],"categories":[],"categories_nodes":[],"categories_segments":[],"categories_sizes":[],"default_left":[0,0,0,0,0,0,0],"id":66,"left_children":[1,3,5,-1,-1,-1,-1],"loss_changes":[1.116769E1,2.5652475E0,2.2406864E0,0E0,0E0,0E0,0E0],"parents":[2147483647,0,0,1,1,2,2],"right_children":[2,4,6,-1,-1,-1,-1],"split_conditions":[2.8E1,4.715115E-1,2.903E1,-2.3544254E-2,2.8159106E-2,2.0851921E-2,4.4758003E-2],"split_indices":[3,21,3,0,0,0,0],"split_type":[0,0,0,0,0,0,0],"sum_hessian":[1.3858679E2,4.058653E1,9.800027E1,3.4842033E1,5.7444963E0,5.5765984E1,4.223428E1],"tree_param":{"num_deleted":"0","num_feature":"23","num_nodes":"7","size_leaf_vector":"1"}},{"base_weights":[-2.3389168E-1,3.074137E-1,-2.9322958E-1,6.6894434E-2,-3.531903E-2,-2.6884735E-2,1.7126118E-4],"categories":[],"categories_nodes":[],"categories_segments":[],"categories_sizes":[],"default_left":[0,0,0,0,0,0,0],"id":67,"left_children":[1,3,5,-1,-1,-1,-1],"loss_changes":[2.8911467E0,4.398437E0,1.3830652E0,0E0,0E0,0E0,0E0],"parents":[2147483647,0,0,1,1,2,2],"right_children":[2,4,6,-1,-1,-1,-1],"split_conditions":[-7.864221E-1,3.0384E4,9.223726E-1,6.6894434E-2,-3.531903E-2,-2.6884735E-2,1.7126118E-4],"split_indices":[5,0,17,0,0,0,0],"split_type":[0,0,0,0,0,0,0],"sum_hessian":[8.6204544E1,8.103181E0,7.8101364E1,4.5799546E0,3.5232265E0,6.4915504E1,1.3185861E1],"tree_param":{"num_deleted":"0","num_feature":"23","num_nodes":"7","size_leaf_vector":"1"}},{"base_weights":[-5.7161663E-2,4.6324766E-1,-2.2854708E-1,1.6725544E-2,5.608365E-2,2.8043898E-2,-2.3840496E-2],"categories":[],"categories_nodes":[],"categories_segments":[],"categories_sizes":[],"default_left":[0,0,0,0,0,0,0],"id":68,"left_children":[1,3,5,-1,-1,-1,-1],"loss_changes":[9.869648E0,1.6597681E0,4.268177E0,0E0,0E0,0E0,0E0],"parents":[2147483647,0,0,1,1,2,2],"right_children":[2,4,6,-1,-1,-1,-1],"split_conditions":[-1.001984E0,-1.3310085E-1,2.439E1,1.6725544E-2,5.608365E-2,2.8043898E-2,-2.3840496E-2],"split_indices":[22,11,3,0,0,0,0],"split_type":[0,0,0,0,0,0,0],"sum_hessian":[1.0847094E2,2.645073E1,8.202021E1,1.488986E1,1.1560869E1,9.705102E0,7.23151E1],"tree_param":{"num_deleted":"0","num_feature":"23","num_nodes":"7","size_leaf_vector":"1"}},{"base_weights":[2.2462372E-1,-6.317001E-2,4.4119704E-1,-4.2438924E-2,3.6863685E-3,3.756328E-2,-2.1642817E-2],"categories":[],"categories_nodes":[],"categories_segments":[],"categories_sizes":[],"default_left":[0,0,0,0,0,0,0],"id":69,"left_children":[1,3,5,-1,-1,-1,-1],"loss_changes":[8.962936E0,3.4586883E0,3.1762161E0,0E0,0E0,0E0,0E0],"parents":[2147483647,0,0,1,1,2,2],"right_children":[2,4,6,-1,-1,-1,-1],"split_conditions":[2.898E1,2.439E1,1.561233E0,-4.2438924E-2,3.6863685E-3,3.756328E-2,-2.1642817E-2],"split_indices":[3,3,12,0,0,0,0],"split_type":[0,0,0,0,0,0,0],"sum_hessian":[1.4235454E2,6.1430656E1,8.092388E1,1.0592848E1,5.083781E1,7.589104E1,5.0328417E0],"tree_param":{"num_deleted":"0","num_feature":"23","num_nodes":"7","size_leaf_vector":"1"}},{"base_weights":[-2.741568E-1,-2.4744773E-2,2.6491672E-1,-1.9252552E-2,5.8630545E-2],"categories":[],"categories_nodes":[],"categories_segments":[],"categories_sizes":[],"default_left":[0,0,0,0,0],"id":70,"left_children":[1,-1,3,-1,-1],"loss_changes":[2.2486367E0,0E0,2.1106265E0,0E0,0E0],"parents":[2147483647,0,0,2,2],"right_children":[2,-1,4,-1,-1],"split_conditions":[1.1533642E0,-2.4744773E-2,5.3183204E-1,-1.9252552E-2,5.8630545E-2],"split_indices":[17,0,6,0,0],"split_type":[0,0,0,0,0],"sum_hessian":[7.897258E1,7.261354E1,6.359044E0,3.3828807E0,2.9761634E0],"tree_param":{"num_deleted":"0","num_feature":"23","num_nodes":"5","size_leaf_vector":"1"}},{"base_weights":[-8.6652406E-2,1.8941967E-1,-3.2198536E-1,6.6380166E-2,5.4104505E-3,-9.056517E-3,-3.4914322E-2],"categories":[],"categories_nodes":[],"categories_segments":[],"categories_sizes":[],"default_left":[0,0,0,0,0,0,0],"id":71,"left_children":[1,3,5,-1,-1,-1,-1],"loss_changes":[6.7521634E0,3.811634E0,1.4887605E0,0E0,0E0,0E0,0E0],"parents":[2147483647,0,0,1,1,2,2],"right_children":[2,4,6,-1,-1,-1,-1],"split_conditions":[-3.554516E-1,-1.0873214E0,2.828E1,6.6380166E-2,5.4104505E-3,-9.056517E-3,-3.4914322E-2],"split_indices":[22,9,3,0,0,0,0],"split_type":[0,0,0,0,0,0,0],"sum_hessian":[1.0199048E2,4.702268E1,5.49678E1,6.032894E0,4.0989784E1,2.274771E1,3.222009E1],"tree_param":{"num_deleted":"0","num_feature":"23","num_nodes":"7","size_leaf_vector":"1"}},{"base_weights":[2.0788488E-1,-3.6628883E-2,2.9534906E-1,1.4265847E-2,4.3416202E-2],"categories":[],"categories_nodes":[],"categories_segments":[],"categories_sizes":[],"default_left":[0,0,0,0,0],"id":72,"left_children":[1,-1,3,-1,-1],"loss_changes":[8.444372E0,0E0,3.542881E0,0E0,0E0],"parents":[2147483647,0,0,2,2],"right_children":[2,-1,4,-1,-1],"split_conditions":[2.6E1,-3.6628883E-2,5.6356937E-1,1.4265847E-2,4.3416202E-2],"split_indices":[3,0,22,0,0],"split_type":[0,0,0,0,0],"sum_hessian":[1.3697919E2,1.4944089E1,1.22035095E2,8.8626366E1,3.340873E1],"tree_param":{"num_deleted":"0","num_feature":"23","num_nodes":"5","size_leaf_vector":"1"}},{"base_weights":[-3.111798E-1,2.8918492E-2,-3.398366E-1,-1.4871936E-3,-3.0283919E-2],"categories":[],"categories_nodes":[],"categories_segments":[],"categories_sizes":[],"default_left":[0,0,0,0,0],"id":73,"left_children":[1,-1,3,-1,-1],"loss_changes":[1.7199364E0,0E0,1.414382E0,0E0,0E0],"parents":[2147483647,0,0,2,2],"right_children":[2,-1,4,-1,-1],"split_conditions":[-1.7044504E0,2.8918492E-2,-9.825981E-1,-1.4871936E-3,-3.0283919E-2],"split_indices":[12,0,10,0,0],"split_type":[0,0,0,0,0],"sum_hessian":[7.9444855E1,2.6796024E0,7.676526E1,1.1813645E1,6.495161E1],"tree_param":{"num_deleted":"0","num_feature":"23","num_nodes":"5","size_leaf_vector":"1"}},{"base_weights":[-1.07234634E-1,4.1784424E-2,-2.2401467E-1,5.8071236E-3,-2.8407415E-2],"categories":[],"categories_nodes":[],"categories_segments":[],"categories_sizes":[],"default_left":[0,0,0,0,0],"id":74,"left_children":[1,-1,3,-1,-1],"loss_changes":[7.180634E0,0E0,3.5462198E0,0E0,0E0],"parents":[2147483647,0,0,2,2],"right_children":[2,-1,4,-1,-1],"split_conditions":[-1.3870505E0,4.1784424E-2,-4.8672166E-1,5.8071236E-3,-2.8407415E-2],"split_indices":[22,0,10,0,0],"split_type":[0,0,0,0,0],"sum_hessian":[9.1287E1,1.3256444E1,7.803056E1,2.596819E1,5.206237E1],"tree_param":{"num_deleted":"0","num_feature":"23","num_nodes":"5","size_leaf_vector":"1"}},{"base_weights":[1.8038003E-1,-2.1135268E-1,3.3137116E-1,-2.5424203E-2,2.7463924E-2,-2.2140386E-2,3.037541E-2],"categories":[],"categories_nodes":[],"categories_segments":[],"categories_sizes":[],"default_left":[0,0,0,0,0,0,0],"id":75,"left_children":[1,3,5,-1,-1,-1,-1],"loss_changes":[7.8649797E0,2.715375E0,4.078289E0,0E0,0E0,0E0,0E0],"parents":[2147483647,0,0,1,1,2,2],"right_children":[2,4,6,-1,-1,-1,-1],"split_conditions":[2.8E1,4.715115E-1,-1.0532212E0,-2.5424203E-2,2.7463924E-2,-2.2140386E-2,3.037541E-2],"split_indices":[3,21,10,0,0,0,0],"split_type":[0,0,0,0,0,0,0],"sum_hessian":[1.3078676E2,3.6274944E1,9.451181E1,3.0240616E1,6.034328E0,8.840963E0,8.5670845E1],"tree_param":{"num_deleted":"0","num_feature":"23","num_nodes":"7","size_leaf_vector":"1"}},{"base_weights":[-2.3225392E-1,-2.6880154E-1,3.0802118E-2,-2.2845628E-2,3.182126E-2],"categories":[],"categories_nodes":[],"categories_segments":[],"categories_sizes":[],"default_left":[0,0,0,0,0],"id":76,"left_children":[1,3,-1,-1,-1],"loss_changes":[1.9081421E0,1.6756806E0,0E0,0E0,0E0],"parents":[2147483647,0,0,1,1],"right_children":[2,4,-1,-1,-1],"split_conditions":[9.8396164E-1,2.1535604E0,3.0802118E-2,-2.2845628E-2,3.182126E-2],"split_indices":[6,19,0,0,0],"split_type":[0,0,0,0,0],"sum_hessian":[7.642593E1,7.281855E1,3.6073751E0,7.024497E1,2.573577E0],"tree_param":{"num_deleted":"0","num_feature":"23","num_nodes":"5","size_leaf_vector":"1"}},{"base_weights":[-1.09348945E-1,4.1869484E-2,-2.4046543E-1,6.8804957E-3,-2.9354252E-2],"categories":[],"categories_nodes":[],"categories_segments":[],"categories_sizes":[],"default_left":[0,0,0,0,0],"id":77,"left_children":[1,-1,3,-1,-1],"loss_changes":[8.5537195E0,0E0,3.9501343E0,0E0,0E0],"parents":[2147483647,0,0,2,2],"right_children":[2,-1,4,-1,-1],"split_conditions":[2.439E1,4.1869484E-2,-6.710586E-1,6.8804957E-3,-2.9354252E-2],"split_indices":[3,0,22,0,0],"split_type":[0,0,0,0,0],"sum_hessian":[9.6597755E1,1.5518658E1,8.10791E1,2.474442E1,5.633468E1],"tree_param":{"num_deleted":"0","num_feature":"23","num_nodes":"5","size_leaf_vector":"1"}},{"base_weights":[1.8514362E-1,-5.875978E-2,3.3517256E-1,-1.3481625E-2,4.2123314E-2,3.4461517E-2,-1.2452513E-4],"categories":[],"categories_nodes":[],"categories_segments":[],"categories_sizes":[],"default_left":[0,0,0,0,0,0,0],"id":78,"left_children":[1,3,5,-1,-1,-1,-1],"loss_changes":[4.6021934E0,3.5949507E0,3.049078E0,0E0,0E0,0E0,0E0],"parents":[2147483647,0,0,1,1,2,2],"right_children":[2,4,6,-1,-1,-1,-1],"split_conditions":[-1.12553015E-1,8.033445E-1,6.5342385E-1,-1.3481625E-2,4.2123314E-2,3.4461517E-2,-1.2452513E-4],"split_indices":[20,10,4,0,0,0,0],"split_type":[0,0,0,0,0,0,0],"sum_hessian":[1.24230316E2,4.7544743E1,7.668557E1,4.044638E1,7.098363E0,5.672321E1,1.996236E1],"tree_param":{"num_deleted":"0","num_feature":"23","num_nodes":"7","size_leaf_vector":"1"}},{"base_weights":[-2.556489E-1,4.0387005E-2,-3.0242893E-1,1.1359133E-2,-2.6733104E-2],"categories":[],"categories_nodes":[],"categories_segments":[],"categories_sizes":[],"default_left":[0,0,0,0,0],"id":79,"left_children":[1,-1,3,-1,-1],"loss_changes":[2.9686995E0,0E0,1.6281247E0,0E0,0E0],"parents":[2147483647,0,0,2,2],"right_children":[2,-1,4,-1,-1],"split_conditions":[-8.43448E-1,4.0387005E-2,3.0071E4,1.1359133E-2,-2.6733104E-2],"split_indices":[5,0,0,0,0],"split_type":[0,0,0,0,0],"sum_hessian":[7.548336E1,3.6651373E0,7.181823E1,6.6960187E0,6.512221E1],"tree_param":{"num_deleted":"0","num_feature":"23","num_nodes":"5","size_leaf_vector":"1"}},{"base_weights":[-5.9696153E-2,6.708145E-2,-3.488739E-2,4.915049E-2,-2.105464E-3],"categories":[],"categories_nodes":[],"categories_segments":[],"categories_sizes":[],"default_left":[0,0,0,0,0],"id":80,"left_children":[1,3,-1,-1,-1],"loss_changes":[4.813763E0,3.99698E0,0E0,0E0,0E0],"parents":[2147483647,0,0,1,1],"right_children":[2,4,-1,-1,-1],"split_conditions":[2.903E1,-1.3795426E0,-3.488739E-2,4.915049E-2,-2.105464E-3],"split_indices":[3,18,0,0,0],"split_type":[0,0,0,0,0],"sum_hessian":[9.389857E1,7.1825615E1,2.2072956E1,9.304471E0,6.252114E1],"tree_param":{"num_deleted":"0","num_feature":"23","num_nodes":"5","size_leaf_vector":"1"}},{"base_weights":[2.2256975E-1,-4.1843135E-2,2.9661638E-1,1.5337455E-2,4.086837E-2],"categories":[],"categories_nodes":[],"categories_segments":[],"categories_sizes":[],"default_left":[0,0,0,0,0],"id":81,"left_children":[1,-1,3,-1,-1],"loss_changes":[7.2759166E0,0E0,2.5047235E0,0E0,0E0],"parents":[2147483647,0,0,2,2],"right_children":[2,-1,4,-1,-1],"split_conditions":[2.439E1,-4.1843135E-2,5.6356937E-1,1.5337455E-2,4.086837E-2],"split_indices":[3,0,22,0,0],"split_type":[0,0,0,0,0],"sum_hessian":[1.23597755E2,1.02688465E1,1.133289E2,8.22694E1,3.1059502E1],"tree_param":{"num_deleted":"0","num_feature":"23","num_nodes":"5","size_leaf_vector":"1"}},{"base_weights":[-2.1759962E-1,5.220103E-2,-2.5811636E-1,-2.4900997E-2,4.5982148E-3],"categories":[],"categories_nodes":[],"categories_segments":[],"categories_sizes":[],"default_left":[0,0,0,0,0],"id":82,"left_children":[1,-1,3,-1,-1],"loss_changes":[2.7960236E0,0E0,1.5263944E0,0E0,0E0],"parents":[2147483647,0,0,2,2],"right_children":[2,-1,4,-1,-1],"split_conditions":[-8.43448E-1,5.220103E-2,9.272092E-1,-2.4900997E-2,4.5982148E-3],"split_indices":[5,0,17,0,0],"split_type":[0,0,0,0,0],"sum_hessian":[7.069166E1,2.3564954E0,6.833516E1,5.6251125E1,1.2084039E1],"tree_param":{"num_deleted":"0","num_feature":"23","num_nodes":"5","size_leaf_vector":"1"}},{"base_weights":[-2.5486095E-2,2.3304957E-1,-2.6893416E-1,2.4294866E-2,-2.7370512E-2,2.975104E-2,-2.4475953E-2],"categories":[],"categories_nodes":[],"categories_segments":[],"categories_sizes":[],"default_left":[0,0,0,0,0,0,0],"id":83,"left_children":[1,3,5,-1,-1,-1,-1],"loss_changes":[6.103055E0,2.4928737E0,1.8300292E0,0E0,0E0,0E0,0E0],"parents":[2147483647,0,0,1,1,2,2],"right_children":[2,4,6,-1,-1,-1,-1],"split_conditions":[-3.554516E-1,2.903E1,2.2E1,2.4294866E-2,-2.7370512E-2,2.975104E-2,-2.4475953E-2],"split_indices":[22,3,3,0,0,0,0],"split_type":[0,0,0,0,0,0,0],"sum_hessian":[9.4970436E1,4.607872E1,4.889172E1,4.0672817E1,5.4059024E0,3.0921612E0,4.5799557E1],"tree_param":{"num_deleted":"0","num_feature":"23","num_nodes":"7","size_leaf_vector":"1"}},{"base_weights":[1.6541603E-1,9.4041385E-2,3.750138E-2,-1.5124325E-2,1.3338E-2],"categories":[],"categories_nodes":[],"categories_segments":[],"categories_sizes":[],"default_left":[0,0,0,0,0],"id":84,"left_children":[1,3,-1,-1,-1],"loss_changes":[2.8665087E0,2.487735E0,0E0,0E0,0E0],"parents":[2147483647,0,0,1,1],"right_children":[2,4,-1,-1,-1],"split_conditions":[7.5382847E-1,-6.622203E-1,3.750138E-2,-1.5124325E-2,1.3338E-2],"split_indices":[10,14,0,0,0],"split_type":[0,0,0,0,0],"sum_hessian":[1.24141106E2,1.0290631E2,2.1234789E1,2.1967474E1,8.093884E1],"tree_param":{"num_deleted":"0","num_feature":"23","num_nodes":"5","size_leaf_vector":"1"}},{"base_weights":[-1.9654955E-1,-1.4344395E-2,-2.7557109E-2,-1.2620488E-2,4.731576E-2],"categories":[],"categories_nodes":[],"categories_segments":[],"categories_sizes":[],"default_left":[0,0,0,0,0],"id":85,"left_children":[1,3,-1,-1,-1],"loss_changes":[2.2039807E0,3.5531707E0,0E0,0E0,0E0],"parents":[2147483647,0,0,1,1],"right_children":[2,4,-1,-1,-1],"split_conditions":[2.828E1,7.833353E-1,-2.7557109E-2,-1.2620488E-2,4.731576E-2],"split_indices":[3,18,0,0,0],"split_type":[0,0,0,0,0],"sum_hessian":[7.26457E1,3.4998726E1,3.7646973E1,2.8865416E1,6.1333113E0],"tree_param":{"num_deleted":"0","num_feature":"23","num_nodes":"5","size_leaf_vector":"1"}},{"base_weights":[-9.387671E-2,2.4579045E-1,-3.005857E-1,-2.6115378E-2,3.364854E-2,3.9481656E-3,-3.0434623E-2],"categories":[],"categories_nodes":[],"categories_segments":[],"categories_sizes":[],"default_left":[0,0,0,0,0,0,0],"id":86,"left_children":[1,3,5,-1,-1,-1,-1],"loss_changes":[6.123683E0,3.9567838E0,1.8916898E0,0E0,0E0,0E0,0E0],"parents":[2147483647,0,0,1,1,2,2],"right_children":[2,4,6,-1,-1,-1,-1],"split_conditions":[2.762E1,3.0226E4,-6.710507E-1,-2.6115378E-2,3.364854E-2,3.9481656E-3,-3.0434623E-2],"split_indices":[3,0,10,0,0,0,0],"split_type":[0,0,0,0,0,0,0],"sum_hessian":[8.516447E1,3.214851E1,5.3015957E1,7.824949E0,2.4323563E1,1.1669254E1,4.1346703E1],"tree_param":{"num_deleted":"0","num_feature":"23","num_nodes":"7","size_leaf_vector":"1"}},{"base_weights":[1.8298079E-1,3.1638768E-2,8.805369E-2,1.2337514E-2,-2.2114601E-2],"categories":[],"categories_nodes":[],"categories_segments":[],"categories_sizes":[],"default_left":[0,0,0,0,0],"id":87,"left_children":[1,-1,3,-1,-1],"loss_changes":[2.7939663E0,0E0,2.6230385E0,0E0,0E0],"parents":[2147483647,0,0,2,2],"right_children":[2,-1,4,-1,-1],"split_conditions":[6.576044E1,3.1638768E-2,9.1674167E-1,1.2337514E-2,-2.2114601E-2],"split_indices":[2,0,17,0,0],"split_type":[0,0,0,0,0],"sum_hessian":[1.27689766E2,3.613132E1,9.155844E1,7.710361E1,1.445484E1],"tree_param":{"num_deleted":"0","num_feature":"23","num_nodes":"5","size_leaf_vector":"1"}},{"base_weights":[-1.8502234E-1,-2.8048536E-1,2.3515426E-1,-2.4272982E-2,2.7139455E-2,5.1108856E-2,-1.7868685E-2],"categories":[],"categories_nodes":[],"categories_segments":[],"categories_sizes":[],"default_left":[0,0,0,0,0,0,0],"id":88,"left_children":[1,3,5,-1,-1,-1,-1],"loss_changes":[2.9222236E0,1.514101E0,2.9577103E0,0E0,0E0,0E0,0E0],"parents":[2147483647,0,0,1,1,2,2],"right_children":[2,4,6,-1,-1,-1,-1],"split_conditions":[9.223726E-1,2.2230887E0,3.0384E4,-2.4272982E-2,2.7139455E-2,5.1108856E-2,-1.7868685E-2],"split_indices":[17,16,0,0,0,0,0],"split_type":[0,0,0,0,0,0,0],"sum_hessian":[7.020847E1,5.7481327E1,1.2727149E1,5.4741325E1,2.74E0,6.3855968E0,6.341552E0],"tree_param":{"num_deleted":"0","num_feature":"23","num_nodes":"7","size_leaf_vector":"1"}},{"base_weights":[-1.3272231E-2,3.624704E-1,-2.494301E-1,1.1587995E-2,4.8818287E-2,3.0869741E-2,-2.1821162E-2],"categories":[],"categories_nodes":[],"categories_segments":[],"categories_sizes":[],"default_left":[0,0,0,0,0,0,0],"id":89,"left_children":[1,3,5,-1,-1,-1,-1],"loss_changes":[8.285424E0,2.0086603E0,1.486439E0,0E0,0E0,0E0,0E0],"parents":[2147483647,0,0,1,1,2,2],"right_children":[2,4,6,-1,-1,-1,-1],"split_conditions":[-6.710586E-1,1E0,-1.3795426E0,1.1587995E-2,4.8818287E-2,3.0869741E-2,-2.1821162E-2],"split_indices":[22,1,18,0,0,0,0],"split_type":[0,0,0,0,0,0,0],"sum_hessian":[9.135424E1,3.505098E1,5.630326E1,2.080388E1,1.4247096E1,2.4488707E0,5.3854393E1],"tree_param":{"num_deleted":"0","num_feature":"23","num_nodes":"7","size_leaf_vector":"1"}},{"base_weights":[1.6768071E-1,-9.174711E-2,3.4333968E-1,2.3448046E-2,-1.3994214E-2,2.9762264E-2,-1.5957894E-2],"categories":[],"categories_nodes":[],"categories_segments":[],"categories_sizes":[],"default_left":[0,0,0,0,0,0,0],"id":90,"left_children":[1,3,5,-1,-1,-1,-1],"loss_changes":[5.498454E0,1.8571403E0,1.9344893E0,0E0,0E0,0E0,0E0],"parents":[2147483647,0,0,1,1,2,2],"right_children":[2,4,6,-1,-1,-1,-1],"split_conditions":[-1.12553015E-1,-6.688776E-1,1.7178348E0,2.3448046E-2,-1.3994214E-2,2.9762264E-2,-1.5957894E-2],"split_indices":[20,4,21,0,0,0,0],"split_type":[0,0,0,0,0,0,0],"sum_hessian":[1.1896609E2,4.8223415E1,7.0742676E1,8.568686E0,3.9654728E1,6.549514E1,5.2475324E0],"tree_param":{"num_deleted":"0","num_feature":"23","num_nodes":"7","size_leaf_vector":"1"}},{"base_weights":[-1.9149442E-1,-2.365098E-1,5.31797E-2,-2.1154242E-2,2.6802022E-2],"categories":[],"categories_nodes":[],"categories_segments":[],"categories_sizes":[],"default_left":[0,0,0,0,0],"id":91,"left_children":[1,3,-1,-1,-1],"loss_changes":[2.8668227E0,1.6555057E0,0E0,0E0,0E0],"parents":[2147483647,0,0,1,1],"right_children":[2,4,-1,-1,-1],"split_conditions":[1.086382E0,1.4822143E0,5.31797E-2,-2.1154242E-2,2.6802022E-2],"split_indices":[6,4,0,0,0],"split_type":[0,0,0,0,0],"sum_hessian":[6.655533E1,6.404439E1,2.51094E0,6.038601E1,3.658378E0],"tree_param":{"num_deleted":"0","num_feature":"23","num_nodes":"5","size_leaf_vector":"1"}},{"base_weights":[-1.334347E-2,4.3053767E-1,-1.521716E-1,4.0934574E-2,-2.4467647E-2,-2.7596653E-2,2.3588375E-3],"categories":[],"categories_nodes":[],"categories_segments":[],"categories_sizes":[],"default_left":[0,0,0,0,0,0,0],"id":92,"left_children":[1,3,5,-1,-1,-1,-1],"loss_changes":[5.6371517E0,1.9078422E0,2.6816943E0,0E0,0E0,0E0,0E0],"parents":[2147483647,0,0,1,1,2,2],"right_children":[2,4,6,-1,-1,-1,-1],"split_conditions":[2.6E1,4.715115E-1,6.973306E1,4.0934574E-2,-2.4467647E-2,-2.7596653E-2,2.3588375E-3],"split_indices":[3,21,2,0,0,0,0],"split_type":[0,0,0,0,0,0,0],"sum_hessian":[8.9414604E1,2.0802057E1,6.861254E1,1.848068E1,2.321376E0,3.1540892E1,3.707165E1],"tree_param":{"num_deleted":"0","num_feature":"23","num_nodes":"7","size_leaf_vector":"1"}},{"base_weights":[1.1822348E-1,-2.1493462E-1,2.616562E-1,-2.3937281E-2,1.5221702E-2,2.6323853E-2,-6.833776E-3],"categories":[],"categories_nodes":[],"categories_segments":[],"categories_sizes":[],"default_left":[0,0,0,0,0,0,0],"id":93,"left_children":[1,3,5,-1,-1,-1,-1],"loss_changes":[5.8187704E0,1.5712095E0,2.5123043E0,0E0,0E0,0E0,0E0],"parents":[2147483647,0,0,1,1,2,2],"right_children":[2,4,6,-1,-1,-1,-1],"split_conditions":[2.8E1,9.6955025E-1,7.5129364E1,-2.3937281E-2,1.5221702E-2,2.6323853E-2,-6.833776E-3],"split_indices":[3,4,2,0,0,0,0],"split_type":[0,0,0,0,0,0,0],"sum_hessian":[1.1959096E2,3.5841553E1,8.3749405E1,2.9137917E1,6.7036347E0,6.769874E1,1.6050667E1],"tree_param":{"num_deleted":"0","num_feature":"23","num_nodes":"7","size_leaf_vector":"1"}},{"base_weights":[-1.6353823E-1,-2.0299204E-1,4.1823637E-2,-2.0036919E-2,1.5272034E-2],"categories":[],"categories_nodes":[],"categories_segments":[],"categories_sizes":[],"default_left":[0,0,0,0,0],"id":94,"left_children":[1,3,-1,-1,-1],"loss_changes":[2.0892196E0,1.6744826E0,0E0,0E0,0E0],"parents":[2147483647,0,0,1,1],"right_children":[2,4,-1,-1,-1],"split_conditions":[1.1512756E0,1.0462878E0,4.1823637E-2,-2.0036919E-2,1.5272034E-2],"split_indices":[6,17,0,0,0],"split_type":[0,0,0,0,0],"sum_hessian":[6.944054E1,6.6470505E1,2.97003E0,5.8209957E1,8.260546E0],"tree_param":{"num_deleted":"0","num_feature":"23","num_nodes":"5","size_leaf_vector":"1"}},{"base_weights":[-2.7234495E-2,-1.4730608E-1,3.033062E-1,2.7525112E-2,-1.7809704E-2,5.0023105E-2,9.001776E-3],"categories":[],"categories_nodes":[],"categories_segments":[],"categories_sizes":[],"default_left":[0,0,0,0,0,0,0],"id":95,"left_children":[1,3,5,-1,-1,-1,-1],"loss_changes":[3.613222E0,2.9995532E0,1.5083771E0,0E0,0E0,0E0,0E0],"parents":[2147483647,0,0,1,1,2,2],"right_children":[2,4,6,-1,-1,-1,-1],"split_conditions":[7.699384E1,2.439E1,-7.248459E-1,2.7525112E-2,-1.7809704E-2,5.0023105E-2,9.001776E-3],"split_indices":[2,3,19,0,0,0,0],"split_type":[0,0,0,0,0,0,0],"sum_hessian":[8.891369E1,6.56281E1,2.3285591E1,9.049788E0,5.657831E1,7.151466E0,1.6134125E1],"tree_param":{"num_deleted":"0","num_feature":"23","num_nodes":"7","size_leaf_vector":"1"}},{"base_weights":[1.20525315E-1,-1.07699744E-1,3.164295E-1,1.9642372E-2,-2.1457722E-2,-4.2467132E-2,2.7399108E-2],"categories":[],"categories_nodes":[],"categories_segments":[],"categories_sizes":[],"default_left":[0,0,0,0,0,0,0],"id":96,"left_children":[1,3,5,-1,-1,-1,-1],"loss_changes":[5.293463E0,3.5627248E0,2.568091E0,0E0,0E0,0E0,0E0],"parents":[2147483647,0,0,1,1,2,2],"right_children":[2,4,6,-1,-1,-1,-1],"split_conditions":[1.1006575E-2,6.812868E1,-8.587694E-1,1.9642372E-2,-2.1457722E-2,-4.2467132E-2,2.7399108E-2],"split_indices":[20,2,22,0,0,0,0],"split_type":[0,0,0,0,0,0,0],"sum_hessian":[1.1663265E2,5.4080276E1,6.2552372E1,1.7266453E1,3.6813824E1,2.3544478E0,6.0197926E1],"tree_param":{"num_deleted":"0","num_feature":"23","num_nodes":"7","size_leaf_vector":"1"}},{"base_weights":[-1.278868E-1,4.7035557E-1,-2.1893618E-1,-1.5992157E-3,9.436136E-2,3.0006027E-2,-2.0580146E-2],"categories":[],"categories_nodes":[],"categories_segments":[],"categories_sizes":[],"default_left":[0,0,0,0,0,0,0],"id":97,"left_children":[1,3,5,-1,-1,-1,-1],"loss_changes":[3.626402E0,3.36295E0,1.8734195E0,0E0,0E0,0E0,0E0],"parents":[2147483647,0,0,1,1,2,2],"right_children":[2,4,6,-1,-1,-1,-1],"split_conditions":[-7.8942543E-1,4.0926987E-1,-1.2232566E0,-1.5992157E-3,9.436136E-2,3.0006027E-2,-2.0580146E-2],"split_indices":[8,17,16,0,0,0,0],"split_type":[0,0,0,0,0,0,0],"sum_hessian":[6.368607E1,7.8620853E0,5.5823982E1,5.3835573E0,2.478528E0,3.7608278E0,5.2063156E1],"tree_param":{"num_deleted":"0","num_feature":"23","num_nodes":"7","size_leaf_vector":"1"}},{"base_weights":[-6.8701915E-2,3.7714556E-2,-1.9455639E-1,-3.4677098E-3,-4.0905952E-2],"categories":[],"categories_nodes":[],"categories_segments":[],"categories_sizes":[],"default_left":[0,0,0,0,0],"id":98,"left_children":[1,-1,3,-1,-1],"loss_changes":[5.8996716E0,0E0,3.4215941E0,0E0,0E0],"parents":[2147483647,0,0,2,2],"right_children":[2,-1,4,-1,-1],"split_conditions":[2.439E1,3.7714556E-2,4.8551863E-1,-3.4677098E-3,-4.0905952E-2],"split_indices":[3,0,22,0,0],"split_type":[0,0,0,0,0],"sum_hessian":[8.090309E1,1.424586E1,6.665723E1,4.7190956E1,1.9466274E1],"tree_param":{"num_deleted":"0","num_feature":"23","num_nodes":"5","size_leaf_vector":"1"}},{"base_weights":[1.01664476E-1,-1.5824638E-1,3.445884E-1,-3.6519196E-2,1.0981956E-3,-2.2017434E-2,3.0099416E-2],"categories":[],"categories_nodes":[],"categories_segments":[],"categories_sizes":[],"default_left":[0,0,0,0,0,0,0],"id":99,"left_children":[1,3,5,-1,-1,-1,-1],"loss_changes":[7.605872E0,3.2408175E0,2.0776315E0,0E0,0E0,0E0,0E0],"parents":[2147483647,0,0,1,1,2,2],"right_children":[2,4,6,-1,-1,-1,-1],"split_conditions":[2.898E1,-6.0897076E-1,-1.2404367E0,-3.6519196E-2,1.0981956E-3,-2.2017434E-2,3.0099416E-2],"split_indices":[3,10,16,0,0,0,0],"split_type":[0,0,0,0,0,0,0],"sum_hessian":[1.1859954E2,5.7464886E1,6.1134655E1,1.9500895E1,3.796399E1,4.11805E0,5.7016605E1],"tree_param":{"num_deleted":"0","num_feature":"23","num_nodes":"7","size_leaf_vector":"1"}},{"base_weights":[-1.15265E-1,-1.6428776E-1,4.5771133E-2,-4.238339E-3,-3.5134107E-2],"categories":[],"categories_nodes":[],"categories_segments":[],"categories_sizes":[],"default_left":[0,0,0,0,0],"id":100,"left_children":[1,3,-1,-1,-1],"loss_changes":[2.3827577E0,1.9635209E0,0E0,0E0,0E0],"parents":[2147483647,0,0,1,1],"right_children":[2,4,-1,-1,-1],"split_conditions":[1.5977943E0,6.37441E-1,4.5771133E-2,-4.238339E-3,-3.5134107E-2],"split_indices":[4,12,0,0,0],"split_type":[0,0,0,0,0],"sum_hessian":[6.415147E1,6.0757065E1,3.3944042E0,4.5310955E1,1.5446113E1],"tree_param":{"num_deleted":"0","num_feature":"23","num_nodes":"5","size_leaf_vector":"1"}},{"base_weights":[-3.7631266E-2,-3.7800384E-1,1.23556726E-1,-3.602438E-2,1.973298E-2,1.9106703E-2,-3.2787897E-2],"categories":[],"categories_nodes":[],"categories_segments":[],"categories_sizes":[],"default_left":[0,0,0,0,0,0,0],"id":101,"left_children":[1,3,5,-1,-1,-1,-1],"loss_changes":[4.519476E0,1.7074206E0,4.044152E0,0E0,0E0,0E0,0E0],"parents":[2147483647,0,0,1,1,2,2],"right_children":[2,4,6,-1,-1,-1,-1],"split_conditions":[6.775907E1,1.0251567E0,2.903E1,-3.602438E-2,1.973298E-2,1.9106703E-2,-3.2787897E-2],"split_indices":[2,14,3,0,0,0,0],"split_type":[0,0,0,0,0,0,0],"sum_hessian":[8.0524734E1,2.5446188E1,5.5078545E1,2.2392696E1,3.053492E0,4.5250214E1,9.828332E0],"tree_param":{"num_deleted":"0","num_feature":"23","num_nodes":"7","size_leaf_vector":"1"}},{"base_weights":[1.21589005E-1,-1.2658802E-1,3.369364E-1,-2.3797523E-2,1.735261E-2,-2.428435E-2,3.0377274E-2],"categories":[],"categories_nodes":[],"categories_segments":[],"categories_sizes":[],"default_left":[0,0,0,0,0,0,0],"id":102,"left_children":[1,3,5,-1,-1,-1,-1],"loss_changes":[5.9223223E0,3.471932E0,2.5000877E0,0E0,0E0,0E0,0E0],"parents":[2147483647,0,0,1,1,2,2],"right_children":[2,4,6,-1,-1,-1,-1],"split_conditions":[2.898E1,2.871354E-1,-1.3854868E0,-2.3797523E-2,1.735261E-2,-2.428435E-2,3.0377274E-2],"split_indices":[3,20,16,0,0,0,0],"split_type":[0,0,0,0,0,0,0],"sum_hessian":[1.0901497E2,5.083842E1,5.817655E1,3.344832E1,1.7390102E1,4.611615E0,5.3564938E1],"tree_param":{"num_deleted":"0","num_feature":"23","num_nodes":"7","size_leaf_vector":"1"}},{"base_weights":[-1.272105E-1,8.369011E-2,-2.6645787E-2,2.9413834E-2,-1.3700571E-2],"categories":[],"categories_nodes":[],"categories_segments":[],"categories_sizes":[],"default_left":[0,0,0,0,0],"id":103,"left_children":[1,3,-1,-1,-1],"loss_changes":[3.171105E0,2.8675869E0,0E0,0E0,0E0],"parents":[2147483647,0,0,1,1],"right_children":[2,4,-1,-1,-1],"split_conditions":[2.828E1,3.0348E4,-2.6645787E-2,2.9413834E-2,-1.3700571E-2],"split_indices":[3,0,0,0,0],"split_type":[0,0,0,0,0],"sum_hessian":[6.60969E1,3.421747E1,3.1879438E1,1.5724649E1,1.8492817E1],"tree_param":{"num_deleted":"0","num_feature":"23","num_nodes":"5","size_leaf_vector":"1"}},{"base_weights":[-6.400721E-2,3.646885E-2,-1.6303526E-1,-2.3571428E-2,5.8778618E-3],"categories":[],"categories_nodes":[],"categories_segments":[],"categories_sizes":[],"default_left":[0,0,0,0,0],"id":104,"left_children":[1,-1,3,-1,-1],"loss_changes":[4.494986E0,0E0,2.48734E0,0E0,0E0],"parents":[2147483647,0,0,2,2],"right_children":[2,-1,4,-1,-1],"split_conditions":[2.439E1,3.646885E-2,7.390281E1,-2.3571428E-2,5.8778618E-3],"split_indices":[3,0,2,0,0],"split_type":[0,0,0,0,0],"sum_hessian":[8.129625E1,1.19678335E1,6.9328415E1,4.294257E1,2.6385849E1],"tree_param":{"num_deleted":"0","num_feature":"23","num_nodes":"5","size_leaf_vector":"1"}},{"base_weights":[1.1004783E-1,-6.0931947E-2,3.8000427E-2,-9.653473E-3,3.9788432E-2],"categories":[],"categories_nodes":[],"categories_segments":[],"categories_sizes":[],"default_left":[0,0,0,0,0],"id":105,"left_children":[1,3,-1,-1,-1],"loss_changes":[7.21103E0,2.970257E0,0E0,0E0,0E0],"parents":[2147483647,0,0,1,1],"right_children":[2,4,-1,-1,-1],"split_conditions":[2.903E1,8.239562E1,3.8000427E-2,-9.653473E-3,3.9788432E-2],"split_indices":[3,2,0,0,0],"split_type":[0,0,0,0,0],"sum_hessian":[1.0723663E2,7.502119E1,3.2215446E1,6.813099E1,6.890201E0],"tree_param":{"num_deleted":"0","num_feature":"23","num_nodes":"5","size_leaf_vector":"1"}},{"base_weights":[-1.7532678E-1,-2.6270732E-1,2.073484E-1,7.446936E-3,-2.7459225E-2,4.412478E-2,-2.2381993E-2],"categories":[],"categories_nodes":[],"categories_segments":[],"categories_sizes":[],"default_left":[0,0,0,0,0,0,0],"id":106,"left_children":[1,3,5,-1,-1,-1,-1],"loss_changes":[2.0614781E0,1.7617714E0,2.3460126E0,0E0,0E0,0E0,0E0],"parents":[2147483647,0,0,1,1,2,2],"right_children":[2,4,6,-1,-1,-1,-1],"split_conditions":[9.182174E-1,-9.012144E-1,-1.7665392E-1,7.446936E-3,-2.7459225E-2,4.412478E-2,-2.2381993E-2],"split_indices":[17,17,8,0,0,0,0],"split_type":[0,0,0,0,0,0,0],"sum_hessian":[5.902107E1,4.8304626E1,1.0716443E1,1.0261013E1,3.8043613E1,6.0665503E0,4.6498923E0],"tree_param":{"num_deleted":"0","num_feature":"23","num_nodes":"7","size_leaf_vector":"1"}},{"base_weights":[-6.771412E-2,3.6468524E-1,-2.2390935E-1,1.449277E-3,4.417521E-2,3.6537796E-2,-2.0236472E-2],"categories":[],"categories_nodes":[],"categories_segments":[],"categories_sizes":[],"default_left":[0,0,0,0,0,0,0],"id":107,"left_children":[1,3,5,-1,-1,-1,-1],"loss_changes":[5.619015E0,1.6290355E0,1.8942904E0,0E0,0E0,0E0,0E0],"parents":[2147483647,0,0,1,1,2,2],"right_children":[2,4,6,-1,-1,-1,-1],"split_conditions":[-1.001984E0,7.590691E1,2.1E1,1.449277E-3,4.417521E-2,3.6537796E-2,-2.0236472E-2],"split_indices":[22,2,3,0,0,0,0],"split_type":[0,0,0,0,0,0,0],"sum_hessian":[8.0987915E1,2.1137531E1,5.9850384E1,8.505806E0,1.2631724E1,2.7357297E0,5.7114655E1],"tree_param":{"num_deleted":"0","num_feature":"23","num_nodes":"7","size_leaf_vector":"1"}},{"base_weights":[6.4606935E-2,-1.4660293E-1,2.681686E-1,-1.2944161E-3,-3.3843298E-2,-3.2082688E-2,2.59936E-2],"categories":[],"categories_nodes":[],"categories_segments":[],"categories_sizes":[],"default_left":[0,0,0,0,0,0,0],"id":108,"left_children":[1,3,5,-1,-1,-1,-1],"loss_changes":[4.883305E0,2.1461205E0,3.02628E0,0E0,0E0,0E0,0E0],"parents":[2147483647,0,0,1,1,2,2],"right_children":[2,4,6,-1,-1,-1,-1],"split_conditions":[2.898E1,5.327824E-1,-1.2404367E0,-1.2944161E-3,-3.3843298E-2,-3.2082688E-2,2.59936E-2],"split_indices":[3,13,16,0,0,0,0],"split_type":[0,0,0,0,0,0,0],"sum_hessian":[1.1166606E2,5.494082E1,5.6725243E1,3.8981377E1,1.5959442E1,4.9473515E0,5.1777893E1],"tree_param":{"num_deleted":"0","num_feature":"23","num_nodes":"7","size_leaf_vector":"1"}},{"base_weights":[-1.00041136E-1,-1.4827797E-1,6.312329E-2,-1.6042711E-2,2.1457933E-2],"categories":[],"categories_nodes":[],"categories_segments":[],"categories_sizes":[],"default_left":[0,0,0,0,0],"id":109,"left_children":[1,3,-1,-1,-1],"loss_changes":[2.8459756E0,1.6224909E0,0E0,0E0,0E0],"parents":[2147483647,0,0,1,1],"right_children":[2,4,-1,-1,-1],"split_conditions":[1.1512756E0,1.0308511E0,6.312329E-2,-1.6042711E-2,2.1457933E-2],"split_indices":[6,21,0,0,0],"split_type":[0,0,0,0,0],"sum_hessian":[5.9877728E1,5.7715805E1,2.161922E0,5.0882755E1,6.8330507E0],"tree_param":{"num_deleted":"0","num_feature":"23","num_nodes":"5","size_leaf_vector":"1"}},{"base_weights":[-2.532673E-2,2.9086035E-1,-1.7589448E-1,3.0046562E-2,-3.653718E-2,1.3595293E-2,-2.1715732E-2],"categories":[],"categories_nodes":[],"categories_segments":[],"categories_sizes":[],"default_left":[0,0,0,0,0,0,0],"id":110,"left_children":[1,3,5,-1,-1,-1,-1],"loss_changes":[3.9195797E0,2.2956617E0,2.1938467E0,0E0,0E0,0E0,0E0],"parents":[2147483647,0,0,1,1,2,2],"right_children":[2,4,6,-1,-1,-1,-1],"split_conditions":[2.603E1,4.715115E-1,-7.3811984E-1,3.0046562E-2,-3.653718E-2,1.3595293E-2,-2.1715732E-2],"split_indices":[3,21,9,0,0,0,0],"split_type":[0,0,0,0,0,0,0],"sum_hessian":[8.025637E1,2.5588871E1,5.46675E1,2.3000925E1,2.5879455E0,1.2692863E1,4.1974636E1],"tree_param":{"num_deleted":"0","num_feature":"23","num_nodes":"7","size_leaf_vector":"1"}},{"base_weights":[1.3187689E-1,-1.0074946E-1,3.328524E-1,-2.3946881E-2,1.36439465E-2,3.1530444E-2,-1.5796768E-2],"categories":[],"categories_nodes":[],"categories_segments":[],"categories_sizes":[],"default_left":[0,0,0,0,0,0,0],"id":111,"left_children":[1,3,5,-1,-1,-1,-1],"loss_changes":[4.807149E0,2.9216385E0,2.4737225E0,0E0,0E0,0E0,0E0],"parents":[2147483647,0,0,1,1,2,2],"right_children":[2,4,6,-1,-1,-1,-1],"split_conditions":[1.1006575E-2,2.828E1,1.0251567E0,-2.3946881E-2,1.36439465E-2,3.1530444E-2,-1.5796768E-2],"split_indices":[20,3,14,0,0,0,0],"split_type":[0,0,0,0,0,0,0],"sum_hessian":[1.01104576E2,4.7093365E1,5.4011215E1,2.6653389E1,2.0439974E1,4.7214035E1,6.797181E0],"tree_param":{"num_deleted":"0","num_feature":"23","num_nodes":"7","size_leaf_vector":"1"}},{"base_weights":[-1.9947089E-1,8.6047776E-2,-2.9189885E-2,-2.7393692E-3,4.9588017E-2],"categories":[],"categories_nodes":[],"categories_segments":[],"categories_sizes":[],"default_left":[0,0,0,0,0],"id":112,"left_children":[1,3,-1,-1,-1],"loss_changes":[3.2614408E0,1.738756E0,0E0,0E0,0E0],"parents":[2147483647,0,0,1,1],"right_children":[2,4,-1,-1,-1],"split_conditions":[3.0356E4,1.0681404E0,-2.9189885E-2,-2.7393692E-3,4.9588017E-2],"split_indices":[0,21,0,0,0],"split_type":[0,0,0,0,0],"sum_hessian":[6.0751858E1,2.3945282E1,3.6806576E1,2.0457317E1,3.487966E0],"tree_param":{"num_deleted":"0","num_feature":"23","num_nodes":"5","size_leaf_vector":"1"}},{"base_weights":[-8.902411E-3,2.0388469E-1,-2.6272136E-1,4.8739617E-3,5.524266E-2,1.0841844E-2,-3.3686318E-2],"categories":[],"categories_nodes":[],"categories_segments":[],"categories_sizes":[],"default_left":[0,0,0,0,0,0,0],"id":113,"left_children":[1,3,5,-1,-1,-1,-1],"loss_changes":[4.2467737E0,3.070351E0,2.6570473E0,0E0,0E0,0E0,0E0],"parents":[2147483647,0,0,1,1,2,2],"right_children":[2,4,6,-1,-1,-1,-1],"split_conditions":[-2.582732E-1,1.8367477E-1,-6.3459224E-1,4.8739617E-3,5.524266E-2,1.0841844E-2,-3.3686318E-2],"split_indices":[22,8,10,0,0,0,0],"split_type":[0,0,0,0,0,0,0],"sum_hessian":[7.66385E1,4.179594E1,3.484256E1,3.3816906E1,7.979035E0,1.073716E1,2.41054E1],"tree_param":{"num_deleted":"0","num_feature":"23","num_nodes":"7","size_leaf_vector":"1"}},{"base_weights":[1.4458063E-1,-1.1372594E-1,3.865976E-1,3.1704877E-3,-4.4356287E-2,4.1262754E-3,3.7043743E-2],"categories":[],"categories_nodes":[],"categories_segments":[],"categories_sizes":[],"default_left":[0,0,0,0,0,0,0],"id":114,"left_children":[1,3,5,-1,-1,-1,-1],"loss_changes":[6.495118E0,3.7050319E0,1.7337155E0,0E0,0E0,0E0,0E0],"parents":[2147483647,0,0,1,1,2,2],"right_children":[2,4,6,-1,-1,-1,-1],"split_conditions":[2.898E1,7.1040106E-1,-7.232962E-1,3.1704877E-3,-4.4356287E-2,4.1262754E-3,3.7043743E-2],"split_indices":[3,18,19,0,0,0,0],"split_type":[0,0,0,0,0,0,0],"sum_hessian":[1.0219439E2,4.968998E1,5.250441E1,3.7987347E1,1.170263E1,1.2393337E1,4.0111073E1],"tree_param":{"num_deleted":"0","num_feature":"23","num_nodes":"7","size_leaf_vector":"1"}},{"base_weights":[-9.611428E-2,-1.9647844E-1,5.609157E-1,1.8316526E-2,-2.0690437E-2,4.57457E-3,8.1540346E-2],"categories":[],"categories_nodes":[],"categories_segments":[],"categories_sizes":[],"default_left":[0,0,0,0,0,0,0],"id":115,"left_children":[1,3,5,-1,-1,-1,-1],"loss_changes":[3.9660578E0,1.7435166E0,1.9730511E0,0E0,0E0,0E0,0E0],"parents":[2147483647,0,0,1,1,2,2],"right_children":[2,4,6,-1,-1,-1,-1],"split_conditions":[1.0462878E0,-1.3295586E0,5.3034765E-1,1.8316526E-2,-2.0690437E-2,4.57457E-3,8.1540346E-2],"split_indices":[17,17,9,0,0,0,0],"split_type":[0,0,0,0,0,0,0],"sum_hessian":[5.747312E1,5.046529E1,7.0078316E0,7.050648E0,4.3414642E1,4.0905533E0,2.9172778E0],"tree_param":{"num_deleted":"0","num_feature":"23","num_nodes":"7","size_leaf_vector":"1"}},{"base_weights":[-8.391807E-2,8.373417E-2,-2.3882343E-2,1.7081916E-3,7.173158E-2],"categories":[],"categories_nodes":[],"categories_segments":[],"categories_sizes":[],"default_left":[0,0,0,0,0],"id":116,"left_children":[1,3,-1,-1,-1],"loss_changes":[3.1616297E0,2.4969113E0,0E0,0E0,0E0],"parents":[2147483647,0,0,1,1],"right_children":[2,4,-1,-1,-1],"split_conditions":[1.1006575E-2,-3.519397E-2,-2.3882343E-2,1.7081916E-3,7.173158E-2],"split_indices":[20,20,0,0,0],"split_type":[0,0,0,0,0],"sum_hessian":[8.063168E1,4.6926334E1,3.370535E1,4.4747276E1,2.1790602E0],"tree_param":{"num_deleted":"0","num_feature":"23","num_nodes":"5","size_leaf_vector":"1"}},{"base_weights":[2.8026165E-2,-3.1356398E-2,8.888063E-2,1.7832924E-4,2.7309552E-2],"categories":[],"categories_nodes":[],"categories_segments":[],"categories_sizes":[],"default_left":[0,0,0,0,0],"id":117,"left_children":[1,-1,3,-1,-1],"loss_changes":[2.746223E0,0E0,2.0925484E0,0E0,0E0],"parents":[2147483647,0,0,2,2],"right_children":[2,-1,4,-1,-1],"split_conditions":[-1.0735977E0,-3.1356398E-2,5.7143116E-1,1.7832924E-4,2.7309552E-2],"split_indices":[10,0,22,0,0],"split_type":[0,0,0,0,0],"sum_hessian":[1.0042793E2,1.1525944E1,8.890199E1,6.802897E1,2.087302E1],"tree_param":{"num_deleted":"0","num_feature":"23","num_nodes":"5","size_leaf_vector":"1"}},{"base_weights":[-1.7084402E-1,-2.583272E-1,2.8799498E-1,3.4585323E-2,-2.3832899E-2,-1.8106114E-2,4.8108745E-2],"categories":[],"categories_nodes":[],"categories_segments":[],"categories_sizes":[],"default_left":[0,0,0,0,0,0,0],"id":118,"left_children":[1,3,5,-1,-1,-1,-1],"loss_changes":[2.4546638E0,2.077246E0,1.9433913E0,0E0,0E0,0E0,0E0],"parents":[2147483647,0,0,1,1,2,2],"right_children":[2,4,6,-1,-1,-1,-1],"split_conditions":[1.0308511E0,-8.43448E-1,6.672416E1,3.4585323E-2,-2.3832899E-2,-1.8106114E-2,4.8108745E-2],"split_indices":[21,5,2,0,0,0,0],"split_type":[0,0,0,0,0,0,0],"sum_hessian":[5.8298107E1,4.932979E1,8.968319E0,2.9604442E0,4.6369343E1,3.661152E0,5.3071666E0],"tree_param":{"num_deleted":"0","num_feature":"23","num_nodes":"7","size_leaf_vector":"1"}},{"base_weights":[-2.2821805E-2,1.7992565E-1,-2.2221517E-2,3.9079256E-2,-5.8300426E-4],"categories":[],"categories_nodes":[],"categories_segments":[],"categories_sizes":[],"default_left":[0,0,0,0,0],"id":119,"left_children":[1,3,-1,-1,-1],"loss_changes":[4.1716323E0,2.7298305E0,0E0,0E0,0E0],"parents":[2147483647,0,0,1,1],"right_children":[2,4,-1,-1,-1],"split_conditions":[1.1006575E-2,-7.0248544E-1,-2.2221517E-2,3.9079256E-2,-5.8300426E-4],"split_indices":[20,9,0,0,0],"split_type":[0,0,0,0,0],"sum_hessian":[7.468855E1,4.2737904E1,3.195065E1,1.479599E1,2.7941912E1],"tree_param":{"num_deleted":"0","num_feature":"23","num_nodes":"5","size_leaf_vector":"1"}},{"base_weights":[6.171388E-2,-4.190214E-1,1.1911245E-1,-6.6471964E-2,-3.200109E-3,2.4551662E-2,-7.3945518E-3],"categories":[],"categories_nodes":[],"categories_segments":[],"categories_sizes":[],"default_left":[0,0,0,0,0,0,0],"id":120,"left_children":[1,3,5,-1,-1,-1,-1],"loss_changes":[2.9075086E0,1.8847431E0,4.116029E0,0E0,0E0,0E0,0E0],"parents":[2147483647,0,0,1,1,2,2],"right_children":[2,4,6,-1,-1,-1,-1],"split_conditions":[-1.2862642E0,-8.6393856E-2,1E0,-6.6471964E-2,-3.200109E-3,2.4551662E-2,-7.3945518E-3],"split_indices":[9,21,1,0,0,0,0],"split_type":[0,0,0,0,0,0,0],"sum_hessian":[1.0256049E2,1.0267338E1,9.229315E1,4.0727043E0,6.1946335E0,4.736546E1,4.4927696E1],"tree_param":{"num_deleted":"0","num_feature":"23","num_nodes":"7","size_leaf_vector":"1"}},{"base_weights":[-4.7329735E-2,-2.7297528E-2,4.7013327E-2,5.4783296E-2,-1.6388024E-3],"categories":[],"categories_nodes":[],"categories_segments":[],"categories_sizes":[],"default_left":[0,0,0,0,0],"id":121,"left_children":[1,-1,3,-1,-1],"loss_changes":[1.7429485E0,0E0,2.133375E0,0E0,0E0],"parents":[2147483647,0,0,2,2],"right_children":[2,-1,4,-1,-1],"split_conditions":[6.576044E1,-2.7297528E-2,6.676523E1,5.4783296E-2,-1.6388024E-3],"split_indices":[2,0,2,0,0],"split_type":[0,0,0,0,0],"sum_hessian":[5.7934456E1,1.2851644E1,4.508281E1,3.297194E0,4.1785618E1],"tree_param":{"num_deleted":"0","num_feature":"23","num_nodes":"5","size_leaf_vector":"1"}},{"base_weights":[-6.8996035E-2,-2.1287148E-1,1.9005866E-1,3.691634E-2,-2.2411752E-2,-1.4060178E-2,3.2941084E-2],"categories":[],"categories_nodes":[],"categories_segments":[],"categories_sizes":[],"default_left":[0,0,0,0,0,0,0],"id":122,"left_children":[1,3,5,-1,-1,-1,-1],"loss_changes":[2.9124913E0,2.9602141E0,2.616776E0,0E0,0E0,0E0,0E0],"parents":[2147483647,0,0,1,1,2,2],"right_children":[2,4,6,-1,-1,-1,-1],"split_conditions":[8.633538E-3,-1.5282314E0,-1.6833882E-1,3.691634E-2,-2.2411752E-2,-1.4060178E-2,3.2941084E-2],"split_indices":[19,18,11,0,0,0,0],"split_type":[0,0,0,0,0,0,0],"sum_hessian":[7.605688E1,4.9013645E1,2.7043232E1,4.5793805E0,4.443426E1,1.0703194E1,1.6340038E1],"tree_param":{"num_deleted":"0","num_feature":"23","num_nodes":"7","size_leaf_vector":"1"}},{"base_weights":[9.233313E-2,3.7592323E-3,3.7899128E-1,-1.7476896E-2,8.613557E-3,3.965353E-2,-1.1620488E-2],"categories":[],"categories_nodes":[],"categories_segments":[],"categories_sizes":[],"default_left":[0,0,0,0,0,0,0],"id":123,"left_children":[1,3,5,-1,-1,-1,-1],"loss_changes":[2.6567261E0,2.0837462E0,1.9262326E0,0E0,0E0,0E0,0E0],"parents":[2147483647,0,0,1,1,2,2],"right_children":[2,4,6,-1,-1,-1,-1],"split_conditions":[5.7143116E-1,4.8863986E-3,7.954E-1,-1.7476896E-2,8.613557E-3,3.965353E-2,-1.1620488E-2],"split_indices":[22,6,4,0,0,0,0],"split_type":[0,0,0,0,0,0,0],"sum_hessian":[1.0369105E2,7.998864E1,2.3702406E1,2.517758E1,5.481106E1,1.8755894E1,4.9465137E0],"tree_param":{"num_deleted":"0","num_feature":"23","num_nodes":"7","size_leaf_vector":"1"}},{"base_weights":[-2.0048912E-1,-2.6341844E-1,2.232599E-1,-2.3424355E-2,3.4778707E-2,-1.8364526E-2,4.962074E-2],"categories":[],"categories_nodes":[],"categories_segments":[],"categories_sizes":[],"default_left":[0,0,0,0,0,0,0],"id":124,"left_children":[1,3,5,-1,-1,-1,-1],"loss_changes":[1.5735409E0,1.7052574E0,1.7192538E0,0E0,0E0,0E0,0E0],"parents":[2147483647,0,0,1,1,2,2],"right_children":[2,4,6,-1,-1,-1,-1],"split_conditions":[1.0462878E0,1.5977943E0,7.888948E-1,-2.3424355E-2,3.4778707E-2,-1.8364526E-2,4.962074E-2],"split_indices":[17,4,20,0,0,0,0],"split_type":[0,0,0,0,0,0,0],"sum_hessian":[5.5803303E1,4.8917168E1,6.8861356E0,4.6661865E1,2.255303E0,3.5098631E0,3.3762727E0],"tree_param":{"num_deleted":"0","num_feature":"23","num_nodes":"7","size_leaf_vector":"1"}},{"base_weights":[-4.8626617E-2,3.049681E-2,-1.753274E-1,1.4367259E-2,-2.5561854E-2],"categories":[],"categories_nodes":[],"categories_segments":[],"categories_sizes":[],"default_left":[0,0,0,0,0],"id":125,"left_children":[1,-1,3,-1,-1],"loss_changes":[4.4315453E0,0E0,3.579925E0,0E0,0E0],"parents":[2147483647,0,0,2,2],"right_children":[2,-1,4,-1,-1],"split_conditions":[2.6E1,3.049681E-2,-5.61992E-1,1.4367259E-2,-2.5561854E-2],"split_indices":[3,0,9,0,0],"split_type":[0,0,0,0,0],"sum_hessian":[7.577956E1,1.622201E1,5.9557545E1,1.81202E1,4.1437347E1],"tree_param":{"num_deleted":"0","num_feature":"23","num_nodes":"5","size_leaf_vector":"1"}},{"base_weights":[4.207512E-2,2.7775264E-1,-5.0862867E-2,-2.5098665E-2,3.980538E-2,1.6020728E-2,-1.5972123E-2],"categories":[],"categories_nodes":[],"categories_segments":[],"categories_sizes":[],"default_left":[0,0,0,0,0,0,0],"id":126,"left_children":[1,3,5,-1,-1,-1,-1],"loss_changes":[2.19584E0,4.3642263E0,3.0319202E0,0E0,0E0,0E0,0E0],"parents":[2147483647,0,0,1,1,2,2],"right_children":[2,4,6,-1,-1,-1,-1],"split_conditions":[6.6272415E1,-7.333755E-1,-1.5340853E-1,-2.5098665E-2,3.980538E-2,1.6020728E-2,-1.5972123E-2],"split_indices":[2,9,15,0,0,0,0],"split_type":[0,0,0,0,0,0,0],"sum_hessian":[9.860615E1,2.7325073E1,7.1281075E1,7.736617E0,1.9588457E1,2.681732E1,4.4463757E1],"tree_param":{"num_deleted":"0","num_feature":"23","num_nodes":"7","size_leaf_vector":"1"}},{"base_weights":[-7.330843E-2,-1.238998E-1,5.5033118E-2,-2.6742073E-2,4.1557457E-3],"categories":[],"categories_nodes":[],"categories_segments":[],"categories_sizes":[],"default_left":[0,0,0,0,0],"id":127,"left_children":[1,3,-1,-1,-1],"loss_changes":[2.268375E0,2.1132643E0,0E0,0E0,0E0],"parents":[2147483647,0,0,1,1],"right_children":[2,4,-1,-1,-1],"split_conditions":[1.1512756E0,1.466237E-1,5.5033118E-2,-2.6742073E-2,4.1557457E-3],"split_indices":[6,17,0,0,0],"split_type":[0,0,0,0,0],"sum_hessian":[5.3203403E1,5.081236E1,2.391045E0,2.1955166E1,2.8857193E1],"tree_param":{"num_deleted":"0","num_feature":"23","num_nodes":"5","size_leaf_vector":"1"}},{"base_weights":[-4.4990346E-2,1.1893144E-1,-2.747405E-1,-1.2814054E-2,2.2389349E-2,-3.133439E-2,1.8335568E-2],"categories":[],"categories_nodes":[],"categories_segments":[],"categories_sizes":[],"default_left":[0,0,0,0,0,0,0],"id":128,"left_children":[1,3,5,-1,-1,-1,-1],"loss_changes":[2.895601E0,2.3054185E0,2.336308E0,0E0,0E0,0E0,0E0],"parents":[2147483647,0,0,1,1,2,2],"right_children":[2,4,6,-1,-1,-1,-1],"split_conditions":[7.7832816E-3,3.0388E4,8.7150824E-1,-1.2814054E-2,2.2389349E-2,-3.133439E-2,1.8335568E-2],"split_indices":[20,0,14,0,0,0,0],"split_type":[0,0,0,0,0,0,0],"sum_hessian":[7.50182E1,4.4062737E1,3.0955471E1,1.6680447E1,2.7382288E1,2.4651346E1,6.3041253E0],"tree_param":{"num_deleted":"0","num_feature":"23","num_nodes":"7","size_leaf_vector":"1"}},{"base_weights":[8.9717686E-2,3.845638E-1,-9.741676E-3,3.686909E-2,-1.666631E-2,-3.6425203E-2,2.8502287E-3],"categories":[],"categories_nodes":[],"categories_segments":[],"categories_sizes":[],"default_left":[0,0,0,0,0,0,0],"id":129,"left_children":[1,3,5,-1,-1,-1,-1],"loss_changes":[3.0071356E0,1.6440709E0,1.7262053E0,0E0,0E0,0E0,0E0],"parents":[2147483647,0,0,1,1,2,2],"right_children":[2,4,6,-1,-1,-1,-1],"split_conditions":[6.576044E1,1.0554855E0,-1.4202037E0,3.686909E-2,-1.666631E-2,-3.6425203E-2,2.8502287E-3],"split_indices":[2,5,21,0,0,0,0],"split_type":[0,0,0,0,0,0,0],"sum_hessian":[1.0141666E2,2.485822E1,7.655844E1,2.1533354E1,3.3248649E0,6.1687417E0,7.0389694E1],"tree_param":{"num_deleted":"0","num_feature":"23","num_nodes":"7","size_leaf_vector":"1"}},{"base_weights":[-9.869539E-2,3.267375E-1,-1.8593012E-1,-3.2272255E-3,9.190415E-2,-3.4419198E-2,-3.9264797E-3],"categories":[],"categories_nodes":[],"categories_segments":[],"categories_sizes":[],"default_left":[0,0,0,0,0,0,0],"id":130,"left_children":[1,3,5,-1,-1,-1,-1],"loss_changes":[2.2408924E0,3.406569E0,1.7378579E0,0E0,0E0,0E0,0E0],